~o
<STREAMINFO> 1 39
<VECSIZE> 39<NULLD><MFCC_E_D_A_Z><DIAGC>
~s "silst"
<NUMMIXES> 3
<MIXTURE> 1 2.685515e-01
<MEAN> 39
 -1.946923e+00 5.044928e-01 2.473523e+00 2.946487e+00 2.593280e+00 4.031793e+00 1.445801e+00 3.417569e+00 3.625650e+00 1.297873e+00 1.985537e+00 9.235827e-01 -6.844428e-02 5.478907e-02 1.995321e-01 1.085349e-01 -4.629619e-02 -7.958589e-02 6.898180e-02 4.112617e-02 4.697260e-02 6.169328e-03 -1.435927e-02 -2.450188e-02 1.295585e-02 -3.419710e-03 -8.448494e-03 -1.920977e-02 2.093726e-02 2.108030e-02 3.047666e-02 2.570508e-02 7.928673e-03 -9.844822e-03 -1.402643e-02 3.461340e-02 1.639421e-02 2.479472e-03 4.256084e-03
<VARIANCE> 39
 7.479765e+00 3.413223e+01 1.600502e+01 1.824456e+01 1.808872e+01 2.259371e+01 2.216763e+01 2.738596e+01 1.583014e+01 2.257765e+01 2.180512e+01 1.676416e+01 6.939411e-03 2.107736e-01 6.021445e-01 5.699003e-01 7.633018e-01 1.104268e+00 1.147978e+00 1.242457e+00 1.399058e+00 1.347024e+00 1.467296e+00 1.361130e+00 1.219506e+00 8.839706e-05 5.561632e-02 1.050472e-01 1.133371e-01 1.518042e-01 2.232065e-01 2.484309e-01 2.567683e-01 2.852315e-01 2.864156e-01 2.822432e-01 2.832272e-01 2.567020e-01 6.000752e-05
<GCONST> 6.230648e+01
<MIXTURE> 2 2.411714e-01
<MEAN> 39
 -2.936727e+00 -9.252340e-01 4.350237e+00 4.196004e+00 4.554173e+00 5.934375e+00 2.967609e+00 5.243385e+00 4.461800e+00 4.446928e+00 2.892200e+00 1.346618e+00 1.501819e-01 -1.772584e+00 -1.175354e+00 -6.211530e-01 5.266524e-01 9.636834e-01 1.717612e+00 2.163033e+00 2.541681e+00 1.950210e+00 1.556364e+00 6.814629e-01 2.439676e-01 -1.034805e-01 4.628692e-01 4.641367e-01 1.156689e-02 -1.345509e-01 -3.076757e-01 -5.090410e-01 -4.357018e-01 -5.057249e-01 -4.682546e-01 -5.253567e-01 -2.789682e-01 -1.940032e-01 3.350109e-02
<VARIANCE> 39
 1.762562e+01 3.792815e+01 2.150271e+01 3.067077e+01 2.659741e+01 3.548584e+01 3.186576e+01 2.914576e+01 3.543094e+01 3.172467e+01 3.548553e+01 2.959061e+01 2.213070e-02 1.528572e+00 1.428727e+00 1.639836e+00 2.032497e+00 2.363778e+00 3.035105e+00 2.993124e+00 2.887783e+00 2.858713e+00 3.066022e+00 3.343436e+00 3.888773e+00 1.793255e-03 1.596850e-01 2.499305e-01 2.463495e-01 3.180469e-01 3.577198e-01 4.061623e-01 4.574474e-01 4.957484e-01 5.268551e-01 5.415426e-01 4.936618e-01 4.823462e-01 2.457214e-04
<GCONST> 9.287148e+01
<MIXTURE> 3 4.902734e-01
<MEAN> 39
 -2.454685e+00 -3.503485e+00 2.540801e+00 3.898505e+00 4.938004e+00 4.650743e+00 3.332652e+00 3.124757e+00 3.577408e+00 2.628353e+00 2.098289e+00 1.683184e+00 9.073623e-02 -2.335998e-01 3.247944e-01 7.692631e-02 8.028898e-02 -2.138852e-01 -1.575574e-01 -1.926472e-01 -1.721624e-01 -1.572648e-01 -9.134520e-02 -3.708983e-02 -8.982728e-02 4.769639e-04 3.540074e-01 3.946691e-01 -6.505109e-03 -7.569910e-02 -2.196433e-01 -2.206565e-01 -2.326310e-01 -1.673030e-01 -1.700295e-01 -1.055530e-01 -1.044883e-01 -4.585069e-02 2.825199e-02
<VARIANCE> 39
 1.618864e+01 4.313577e+01 3.926923e+01 3.368707e+01 3.421593e+01 4.231975e+01 3.659616e+01 4.589448e+01 3.869499e+01 3.393562e+01 3.716996e+01 2.434542e+01 2.431418e-02 2.097515e+00 2.685195e+00 2.253545e+00 2.341298e+00 2.716111e+00 2.798242e+00 2.808242e+00 3.018938e+00 3.007450e+00 2.624248e+00 2.689787e+00 2.217895e+00 6.398454e-03 3.740453e-01 4.588804e-01 4.902869e-01 4.907526e-01 6.079872e-01 6.474741e-01 6.181143e-01 6.581542e-01 6.701396e-01 5.864133e-01 6.035811e-01 4.921505e-01 7.473436e-04
<GCONST> 1.023811e+02
~h "#i"
<BEGINHMM>
<NUMSTATES> 15
<STATE> 2
<NUMMIXES> 12
<MIXTURE> 1 2.213561e-02
<MEAN> 39
 -3.886580e+00 9.722053e+00 -5.115158e+00 -3.535764e+00 -6.172247e+00 -4.616335e+00 2.026374e+00 -6.951857e-01 3.813314e+00 2.913414e+00 4.767840e+00 7.085859e+00 8.413666e-01 -1.715705e+00 -1.886794e-01 -2.819016e-01 1.768288e-01 -1.656905e-01 -1.750834e-01 -1.467139e+00 -1.009103e+00 1.259783e+00 3.050616e+00 3.927739e+00 3.421924e+00 4.723983e-02 5.170374e-01 -1.374448e-01 6.037009e-01 3.336402e-01 5.439304e-01 7.413862e-01 4.369454e-01 5.981405e-01 2.147570e-01 5.634716e-02 -6.717435e-01 -8.584942e-01 -2.780040e-02
<VARIANCE> 39
 1.398817e+01 3.172975e+01 2.426587e+01 2.191506e+01 1.582614e+01 7.862370e+00 2.214984e+01 1.771169e+01 7.297868e+01 1.032697e+02 5.339713e+01 7.884061e+01 4.502055e-03 5.377288e-01 6.685547e-01 1.069789e+00 7.589249e-01 5.496315e-01 1.100680e+00 8.856909e-01 1.898657e+00 3.584570e+00 3.708483e+00 1.793487e+00 3.854904e+00 2.197028e-04 1.194518e-01 1.884440e-01 3.561961e-01 2.575277e-01 2.402400e-01 2.380956e-01 4.537982e-01 1.844320e-01 5.506424e-01 1.426097e+00 7.858074e-01 6.124018e-01 3.544971e-04
<GCONST> 8.115508e+01
<MIXTURE> 2 4.274272e-02
<MEAN> 39
 9.328886e-01 5.271853e+00 -4.293393e+00 -4.941895e+00 -5.720630e+00 -3.894154e+00 -4.303828e+00 -2.723050e+00 4.923344e+00 3.311704e+00 9.899466e+00 9.208407e+00 5.765926e-01 -8.611470e-02 7.039239e-01 8.744784e-02 2.083856e-01 -3.713360e-01 7.477078e-02 -7.142007e-01 -1.223522e+00 -1.529663e+00 -1.082338e+00 -8.403414e-01 -1.085158e+00 4.344479e-02 -4.661855e-02 2.636938e-01 2.875251e-01 3.062006e-01 1.034557e-01 5.421599e-02 2.125024e-01 4.595494e-01 6.733877e-03 4.350994e-02 -4.439504e-01 -6.435655e-01 -1.988746e-03
<VARIANCE> 39
 1.213279e+01 4.332010e+01 4.746723e+01 1.402936e+01 4.294138e+01 1.503911e+01 2.104197e+01 4.409103e+01 5.867832e+01 9.495015e+01 7.186735e+01 6.803838e+01 5.206523e-02 1.133180e+00 2.162697e+00 1.920403e+00 2.044310e+00 1.418769e+00 2.306717e+00 2.681689e+00 6.248848e+00 7.564721e+00 4.964725e+00 8.339511e+00 7.137814e+00 1.326690e-03 2.461282e-01 5.529184e-01 4.764445e-01 3.903155e-01 3.110821e-01 4.251999e-01 4.975140e-01 7.161272e-01 1.409747e+00 1.060074e+00 1.667248e+00 1.118798e+00 2.839172e-04
<GCONST> 1.053936e+02
<MIXTURE> 3 1.657734e-02
<MEAN> 39
 2.128383e+00 2.701357e+00 -2.507991e+00 -6.232189e+00 -3.351626e+00 5.285103e+00 1.120658e+01 8.096586e+00 2.529414e+00 -9.267949e-01 -5.969753e+00 -4.039770e+00 6.130012e-01 -9.754039e-01 1.837135e+00 -2.061497e+00 -1.088136e+00 -1.689000e+00 -3.930079e+00 -1.124660e+00 -2.922089e-01 2.074983e+00 4.161000e+00 2.627584e+00 1.957605e+00 1.122089e-01 -3.365212e-01 -2.460024e-01 4.988804e-01 5.181424e-01 3.561012e-01 -1.453300e-01 -1.221465e+00 -6.992005e-01 7.341621e-04 4.414108e-01 8.025768e-01 5.601126e-01 -6.773729e-03
<VARIANCE> 39
 1.157365e+01 6.645223e+01 1.863560e+01 1.554687e+01 2.492609e+01 7.416058e+01 6.094111e+01 3.771798e+01 1.293740e+02 2.834452e+02 1.101600e+02 7.017673e+01 3.505827e-02 2.021436e+00 4.598890e+00 3.282801e+00 3.343313e+00 3.645624e+00 2.603974e+00 1.330731e+01 4.797160e+00 7.138190e+00 1.415288e+01 1.424113e+01 1.080455e+01 1.083991e-02 3.115813e-01 9.248990e-01 5.987851e-01 4.090341e-01 3.623347e-01 1.192379e+00 1.374646e+00 8.705856e-01 2.217292e+00 4.386781e+00 8.940720e-01 1.767120e+00 1.896358e-03
<GCONST> 1.246785e+02
<MIXTURE> 4 8.702795e-02
<MEAN> 39
 -1.431904e+00 1.288860e+01 1.307633e+00 -1.197093e+00 -5.171013e+00 -4.778803e+00 -8.713258e+00 -1.257117e+00 1.610453e+00 -5.648480e+00 5.942955e+00 -3.045049e+00 7.954131e-01 -9.538108e-03 1.248030e+00 -4.977970e-01 1.293756e+00 -1.152314e+00 5.995985e-01 -1.177531e+00 3.685604e-02 -1.125564e+00 -7.834523e-01 6.461264e-01 -1.264847e+00 7.439974e-03 1.338446e-01 -4.904160e-01 1.764041e-01 -4.960786e-01 3.161088e-02 2.965687e-01 3.264800e-01 3.515826e-01 -2.589240e-01 5.239478e-01 -5.907802e-01 2.886433e-01 2.882322e-03
<VARIANCE> 39
 9.498203e+00 2.835414e+01 1.599604e+01 2.177620e+01 1.821262e+01 3.117893e+01 2.118828e+01 2.338416e+01 2.512607e+01 4.264075e+01 1.858571e+01 2.218143e+01 5.932963e-03 3.656795e-01 7.350693e-01 9.486867e-01 1.407844e+00 1.024235e+00 1.553741e+00 1.491313e+00 1.698753e+00 2.259253e+00 2.102193e+00 1.137312e+00 1.710263e+00 2.653412e-04 7.592662e-02 1.992676e-01 2.291308e-01 2.310448e-01 2.790190e-01 3.233533e-01 2.840542e-01 2.569971e-01 3.439092e-01 4.240484e-01 2.839558e-01 3.413279e-01 2.339057e-05
<GCONST> 7.082857e+01
<MIXTURE> 5 2.234643e-01
<MEAN> 39
 1.422211e+00 1.209407e+01 -3.717143e+00 -3.032939e+00 -4.039796e+00 -4.171891e+00 -2.663249e+00 7.195268e-01 -3.116048e+00 -1.226768e+00 -4.598207e+00 -2.020475e+00 7.300661e-01 3.143907e-02 7.818497e-01 -1.057675e-02 4.944445e-01 -4.586838e-01 -1.074160e-01 -4.810786e-01 -4.276709e-01 -4.408062e-01 6.145928e-02 -8.642297e-02 6.953225e-01 9.861555e-03 -1.024650e-01 -1.113400e-01 8.042448e-02 -8.335958e-02 4.345708e-02 -1.639452e-01 -5.345957e-02 -7.285114e-02 7.867884e-02 -1.654296e-02 2.948773e-01 1.653584e-01 7.229740e-03
<VARIANCE> 39
 1.311258e+01 2.219077e+01 1.885780e+01 2.447117e+01 2.016349e+01 1.699076e+01 3.870944e+01 2.857860e+01 2.849500e+01 2.460289e+01 4.694514e+01 4.489298e+01 1.260179e-02 5.802948e-01 8.551289e-01 9.830411e-01 1.277439e+00 1.335797e+00 1.726573e+00 2.146352e+00 1.907441e+00 2.143677e+00 1.774342e+00 3.158023e+00 2.980587e+00 5.435571e-04 7.038806e-02 1.778525e-01 1.573079e-01 2.747073e-01 2.728516e-01 3.414598e-01 3.932047e-01 3.062981e-01 3.965588e-01 4.679780e-01 4.680271e-01 5.198913e-01 5.212777e-05
<GCONST> 7.902344e+01
<MIXTURE> 6 1.040867e-01
<MEAN> 39
 2.304434e+00 1.264660e+01 -5.135334e-01 8.164914e-01 -3.822216e+00 -3.140567e+00 3.265298e+00 3.932789e+00 3.015684e+00 5.320321e+00 3.611268e-01 5.456629e+00 6.282520e-01 2.285089e-01 1.302020e+00 -1.449408e-01 -8.908511e-02 -8.373423e-01 -1.330474e-02 -7.759135e-01 -4.322071e-01 -1.070043e+00 -5.574306e-01 -1.345183e+00 2.770909e-01 4.024342e-02 -2.514640e-01 -5.822144e-01 -8.685541e-02 -3.684116e-01 9.096351e-02 -1.232949e-01 -1.655509e-01 -3.145883e-01 -2.076428e-01 -4.238930e-01 -1.270386e-01 -3.042074e-01 6.177565e-03
<VARIANCE> 39
 1.081760e+01 2.871334e+01 1.925460e+01 1.853001e+01 1.435685e+01 2.359688e+01 1.793535e+01 2.682357e+01 2.230984e+01 2.182599e+01 2.374510e+01 2.961761e+01 1.284756e-02 9.187214e-01 2.854352e+00 1.134133e+00 1.284360e+00 1.417454e+00 2.426209e+00 2.268978e+00 2.026783e+00 2.152358e+00 2.435916e+00 2.915457e+00 1.791694e+00 2.324824e-03 1.738349e-01 4.565675e-01 2.340819e-01 3.119764e-01 3.110340e-01 3.703435e-01 3.273920e-01 4.674400e-01 4.089896e-01 3.490882e-01 5.014389e-01 5.016542e-01 3.012737e-04
<GCONST> 8.440774e+01
<MIXTURE> 7 8.441730e-02
<MEAN> 39
 2.768068e+00 8.852775e+00 4.760411e-01 -1.230103e+00 -6.413565e+00 -4.159070e+00 -7.077534e+00 -5.016493e-01 -2.777548e+00 -2.371821e+00 -4.777118e-01 -2.339223e+00 6.387070e-01 5.160291e-01 3.710098e+00 -3.298180e-01 -1.607363e+00 -1.815898e+00 -1.410056e+00 -2.650840e+00 3.553487e-02 -8.676061e-01 -1.075883e+00 5.617403e-01 -2.000809e+00 1.487430e-01 -6.716461e-01 -7.665337e-01 -1.238134e-01 -3.470706e-02 4.396175e-01 5.454313e-01 7.147843e-01 2.906275e-01 5.362206e-01 2.431980e-01 2.796950e-01 3.412685e-01 -3.284918e-02
<VARIANCE> 39
 1.296735e+01 5.467431e+01 1.929683e+01 3.184611e+01 3.104226e+01 3.212546e+01 3.934543e+01 3.745916e+01 2.769190e+01 3.089133e+01 2.565133e+01 2.779609e+01 1.586888e-02 1.359239e+00 3.769844e+00 1.989632e+00 2.581749e+00 2.671273e+00 3.020072e+00 3.509304e+00 3.242768e+00 2.560546e+00 2.786316e+00 4.119437e+00 2.804826e+00 5.178453e-03 2.006299e-01 6.363892e-01 2.690912e-01 5.515501e-01 3.908824e-01 4.831502e-01 5.298710e-01 7.131866e-01 4.143912e-01 5.226491e-01 5.426525e-01 4.694238e-01 5.364644e-04
<GCONST> 9.794534e+01
<MIXTURE> 8 1.095464e-01
<MEAN> 39
 5.194899e-01 1.124626e+01 -4.362479e+00 -2.944143e+00 -6.200778e+00 -5.617099e+00 -4.332874e-01 1.322765e+00 -1.174824e+00 9.588450e-01 -2.164735e+00 3.687866e+00 8.053566e-01 -1.149112e+00 1.209391e-01 -6.862370e-01 -3.050714e-01 -5.736534e-01 -9.303282e-01 -1.106146e+00 -1.328238e+00 -1.720929e+00 -1.386076e+00 -1.015835e+00 7.511103e-02 6.547624e-02 -2.694432e-01 -8.539042e-01 6.100863e-01 7.328113e-01 8.389874e-01 9.231975e-01 1.516096e-01 2.645973e-01 3.584198e-01 2.653180e-01 4.156905e-01 -7.406460e-02 -4.308190e-02
<VARIANCE> 39
 1.572682e+01 4.853148e+01 1.933628e+01 1.588119e+01 2.168014e+01 2.726910e+01 3.483134e+01 2.667621e+01 2.848892e+01 3.485435e+01 2.785707e+01 5.439171e+01 9.366937e-03 8.917012e-01 9.269593e-01 7.992818e-01 1.422697e+00 1.408869e+00 1.489438e+00 1.991770e+00 2.339862e+00 1.701200e+00 2.038080e+00 5.898869e+00 6.943135e+00 7.526559e-04 1.635041e-01 3.756015e-01 2.531881e-01 2.180060e-01 2.864529e-01 3.061925e-01 4.740660e-01 3.411278e-01 3.163987e-01 4.710631e-01 3.898635e-01 8.161923e-01 2.773374e-04
<GCONST> 8.561258e+01
<MIXTURE> 9 4.078180e-02
<MEAN> 39
 -9.672247e-01 8.208168e+00 -2.786623e+00 -4.086579e+00 -1.521655e+00 -7.495143e+00 6.465143e+00 4.779975e+00 6.396190e+00 5.952389e+00 3.809273e+00 -1.184178e+00 6.577124e-01 -2.578322e-02 2.442510e+00 -1.066223e+00 1.916594e+00 -1.083440e+00 -1.314854e+00 -1.603142e+00 -6.907864e-01 -1.228183e+00 4.960567e-01 6.780171e-02 1.043916e+00 -3.977920e-03 2.916838e-01 -6.408366e-01 2.690084e-01 1.242035e-01 -4.632651e-01 7.980406e-01 -5.182127e-01 -4.602900e-01 -6.455577e-01 -6.839259e-01 -7.798383e-01 9.226616e-02 1.332151e-02
<VARIANCE> 39
 6.845370e+00 3.661329e+01 1.985939e+01 3.958587e+01 1.635329e+01 2.955097e+01 3.524784e+01 2.969591e+01 4.574837e+01 4.638811e+01 5.866754e+01 4.429250e+01 1.556676e-02 6.970181e-01 2.351802e+00 1.313601e+00 2.799484e+00 2.762918e+00 5.019035e+00 3.193384e+00 6.169312e+00 6.613420e+00 5.896169e+00 5.051817e+00 5.402923e+00 1.173057e-03 1.623702e-01 3.435312e-01 2.899187e-01 7.987558e-01 5.966867e-01 7.133725e-01 7.534519e-01 8.122920e-01 9.097730e-01 8.871124e-01 7.108713e-01 9.772003e-01 1.576211e-04
<GCONST> 1.009629e+02
<MIXTURE> 10 7.396211e-02
<MEAN> 39
 -2.022084e+00 1.178715e+01 -2.106211e+00 -5.007339e+00 -2.636112e+00 -1.122261e+01 6.817766e-02 -2.069835e+00 -2.411822e-01 -2.427241e+00 -3.623269e-01 -4.771923e-02 8.039901e-01 -4.908006e-01 1.937571e+00 -1.535070e+00 2.367923e+00 -1.523983e+00 3.955717e-02 -1.130597e+00 -1.391640e+00 -1.314249e+00 -1.888520e+00 5.644974e-02 2.957019e-01 -3.648268e-03 3.792431e-01 -9.641655e-01 4.383755e-01 2.209226e-01 -5.081379e-01 9.914813e-01 -4.307901e-02 3.394634e-01 -2.375952e-01 2.792512e-01 -2.290681e-01 -2.065601e-01 3.519528e-03
<VARIANCE> 39
 9.811826e+00 2.992762e+01 1.978340e+01 3.084254e+01 2.579429e+01 2.593345e+01 4.476885e+01 3.048953e+01 3.357529e+01 2.816662e+01 3.234560e+01 2.962576e+01 9.806543e-03 6.913418e-01 1.541562e+00 9.285822e-01 1.645689e+00 2.112286e+00 4.141361e+00 2.582603e+00 2.785670e+00 3.731514e+00 2.711381e+00 3.609974e+00 3.247112e+00 2.373139e-04 8.469977e-02 2.373904e-01 2.522619e-01 5.510740e-01 5.125512e-01 4.510735e-01 3.920733e-01 4.876445e-01 5.739487e-01 4.636659e-01 4.069118e-01 4.605371e-01 2.711118e-05
<GCONST> 8.513695e+01
<MIXTURE> 11 8.774981e-02
<MEAN> 39
 -1.757017e+00 1.180214e+01 3.042103e+00 -6.931741e+00 -2.015367e+00 -6.044869e+00 -7.758889e+00 7.725539e-01 2.048716e+00 -2.129730e+00 3.841218e+00 1.788850e+00 8.350790e-01 -3.955102e-01 1.749968e+00 -8.732511e-01 1.205814e+00 -1.530211e-01 -6.376938e-01 -6.191126e-01 -7.520998e-01 -2.719568e-01 -1.506664e+00 1.072304e+00 -1.004715e+00 2.637574e-03 1.983299e-01 -4.955856e-01 4.494254e-03 1.556283e-01 -5.705854e-01 4.623142e-01 2.590086e-01 7.722361e-02 -1.192655e-01 2.634792e-01 -2.966209e-01 -3.874428e-01 2.038709e-03
<VARIANCE> 39
 7.453315e+00 2.490088e+01 9.486831e+00 1.327493e+01 1.396738e+01 1.236517e+01 1.894650e+01 1.759231e+01 2.119234e+01 2.138693e+01 2.276877e+01 1.760458e+01 6.266972e-03 2.170271e-01 8.634975e-01 6.402235e-01 1.131831e+00 9.031817e-01 1.036051e+00 1.321184e+00 1.452704e+00 1.068315e+00 1.439821e+00 1.481628e+00 1.508316e+00 1.708450e-04 4.836151e-02 1.647539e-01 7.494978e-02 1.687781e-01 1.661922e-01 2.506588e-01 2.381791e-01 2.340595e-01 1.322777e-01 2.463925e-01 3.414128e-01 2.232285e-01 1.499097e-05
<GCONST> 5.851009e+01
<MIXTURE> 12 1.075051e-01
<MEAN> 39
 2.801789e+00 9.532186e+00 -2.943962e+00 -2.611531e+00 -4.706880e+00 -3.192758e+00 1.717894e+00 4.249472e+00 5.001692e+00 5.864385e+00 3.664525e+00 5.143494e+00 6.475366e-01 1.710112e-01 2.526978e+00 -2.533810e+00 -2.233922e+00 -2.783564e+00 -3.048952e+00 -1.254068e+00 -2.004476e+00 -1.729501e+00 -1.102464e+00 -9.921963e-01 1.147783e+00 1.744593e-01 -6.537768e-01 -8.468491e-01 6.768104e-01 7.130530e-01 8.542793e-01 8.925792e-01 -1.273376e-02 -9.499262e-02 -4.666815e-01 -4.722729e-01 -3.599925e-01 -4.047635e-01 -3.729974e-02
<VARIANCE> 39
 1.403669e+01 5.363879e+01 2.183482e+01 2.380545e+01 2.143226e+01 2.297468e+01 3.142598e+01 2.789640e+01 3.875536e+01 3.293601e+01 4.317931e+01 4.096838e+01 2.193390e-02 2.132726e+00 3.286053e+00 2.572390e+00 2.257154e+00 2.258705e+00 2.548632e+00 2.415071e+00 2.276316e+00 3.562796e+00 3.358546e+00 5.328917e+00 6.193953e+00 2.712330e-03 1.859327e-01 3.754948e-01 3.679752e-01 4.498805e-01 4.841641e-01 5.097868e-01 4.939889e-01 4.610162e-01 5.608473e-01 6.314817e-01 8.221049e-01 6.417786e-01 4.844728e-04
<GCONST> 9.892085e+01
<STATE> 3
<NUMMIXES> 12
<MIXTURE> 1 5.146260e-02
<MEAN> 39
 -3.034123e+00 1.049146e+01 -7.837541e+00 -3.933060e+00 -7.101532e+00 -6.318573e+00 5.759668e-01 -9.508961e-01 4.136740e+00 6.211447e+00 8.567315e+00 1.290618e+01 8.702334e-01 -5.023883e-01 -8.026179e-02 -7.964993e-02 2.011485e-01 -3.461946e-01 -1.994728e-01 -7.679218e-01 -3.642816e-01 5.865550e-01 1.230523e+00 2.037973e+00 2.151046e+00 2.614361e-02 4.288305e-01 1.592148e-01 2.893226e-01 2.195035e-01 1.326190e-01 1.502038e-01 2.552923e-01 3.321810e-01 2.885738e-02 -2.638826e-01 -5.481479e-01 -8.069019e-01 -9.128764e-03
<VARIANCE> 39
 2.388103e+01 2.093221e+01 2.007400e+01 1.485250e+01 3.058875e+01 2.028046e+01 2.979175e+01 3.832875e+01 6.824120e+01 6.677042e+01 4.432480e+01 5.418661e+01 4.455962e-03 5.897849e-01 5.449836e-01 9.543871e-01 9.355454e-01 1.424084e+00 1.021648e+00 2.187583e+00 1.006561e+00 2.717582e+00 3.396874e+00 3.871662e+00 4.652855e+00 1.608739e-04 7.855542e-02 1.139850e-01 1.432998e-01 1.746897e-01 2.734419e-01 1.985535e-01 3.408016e-01 3.590242e-01 4.400116e-01 5.603158e-01 5.267954e-01 5.124292e-01 3.581994e-05
<GCONST> 7.778537e+01
<MIXTURE> 2 7.045387e-02
<MEAN> 39
 -2.401177e+00 9.436373e+00 -3.380291e+00 -2.849846e+00 -5.066927e+00 -4.611238e+00 -2.671482e+00 -9.808191e-01 -4.264544e+00 -1.857861e+00 -3.269253e+00 2.253953e+00 8.770213e-01 -4.934190e-01 9.408224e-03 2.592663e-01 8.641335e-01 5.501423e-01 1.345177e-01 -4.625779e-01 -6.462222e-01 -5.366262e-01 -4.804468e-01 -5.411456e-01 1.112674e-01 2.956049e-02 3.769969e-01 -3.453356e-02 2.284733e-01 2.314894e-01 2.400486e-01 2.260978e-01 2.681390e-01 4.000208e-01 6.189952e-01 5.817174e-01 5.384852e-01 1.964767e-01 -1.311155e-02
<VARIANCE> 39
 9.543627e+00 4.921104e+01 1.169887e+01 1.661151e+01 1.365516e+01 3.499045e+01 2.071626e+01 1.238167e+01 2.140974e+01 2.902366e+01 4.283321e+01 3.834536e+01 5.625617e-03 3.956921e-01 2.126063e-01 2.966966e-01 6.738249e-01 5.600067e-01 7.482058e-01 8.555595e-01 1.089699e+00 8.885129e-01 1.058126e+00 2.111818e+00 2.047933e+00 1.131659e-04 8.483560e-02 9.539948e-02 1.374636e-01 1.662306e-01 1.584437e-01 2.802199e-01 1.776114e-01 2.390142e-01 1.900306e-01 2.204440e-01 4.786940e-01 4.497223e-01 7.688660e-05
<GCONST> 6.171029e+01
<MIXTURE> 3 5.038748e-02
<MEAN> 39
 -1.984265e+00 1.053777e+01 -6.899406e+00 -1.304715e+00 -8.632985e+00 -9.158497e+00 -6.134944e+00 -7.175930e+00 -5.495448e+00 -4.550589e+00 -7.884568e+00 2.342959e+00 8.665181e-01 -1.996689e-01 -2.556954e-01 -3.716630e-01 3.489618e-02 -3.851988e-01 -3.995898e-01 -9.435009e-01 -7.817258e-01 -4.216627e-01 -6.410155e-01 -2.854169e-01 -1.208233e-01 1.773761e-02 3.375570e-01 3.289843e-01 4.468586e-01 2.149127e-01 4.140787e-01 5.663052e-01 7.039239e-01 7.043836e-01 5.018356e-01 5.776227e-01 5.636292e-01 2.917830e-01 -5.633118e-03
<VARIANCE> 39
 1.384682e+01 1.327054e+01 1.026616e+01 7.982072e+00 8.761540e+00 1.344125e+01 1.466640e+01 2.430352e+01 1.509309e+01 1.844823e+01 1.392080e+01 1.448607e+01 7.072103e-03 2.368480e-01 3.132341e-01 3.991914e-01 3.298264e-01 5.495251e-01 6.918700e-01 8.750948e-01 9.214264e-01 9.262276e-01 8.996181e-01 1.025788e+00 1.290072e+00 9.018151e-05 3.356697e-02 3.821947e-02 5.437586e-02 7.342417e-02 6.907005e-02 8.013394e-02 1.313894e-01 1.543570e-01 1.008327e-01 1.280781e-01 1.939931e-01 1.336755e-01 1.304261e-05
<GCONST> 4.237331e+01
<MIXTURE> 4 9.294976e-02
<MEAN> 39
 -7.472444e-01 1.791266e+01 1.775933e+00 -1.358168e+00 -7.995368e+00 -1.873504e+00 -1.347048e+01 3.900074e+00 -2.603215e+00 -2.782980e+00 3.300658e+00 -4.773054e+00 7.756233e-01 -7.096651e-01 5.108530e-01 2.981620e-02 -1.383505e-01 -2.531951e-01 1.949241e-01 -2.614130e-01 2.341582e-01 -9.746663e-02 -4.174727e-01 2.009737e-01 -1.906132e-01 2.541372e-02 1.090955e-01 -3.319307e-01 1.177923e-02 -2.906420e-02 9.658116e-02 -1.137861e-01 2.442716e-01 -3.058373e-01 5.613198e-03 5.604590e-02 1.194601e-02 1.044594e-01 -3.824582e-03
<VARIANCE> 39
 9.597538e+00 2.235350e+01 1.132587e+01 1.443852e+01 2.093345e+01 1.627022e+01 2.225246e+01 1.569994e+01 2.188399e+01 2.851149e+01 1.005497e+01 6.533168e+00 6.580932e-03 7.790934e-01 8.034620e-01 6.965613e-01 1.217376e+00 5.962668e-01 7.291254e-01 1.231163e+00 1.686016e+00 1.555323e+00 9.864265e-01 8.806369e-01 6.850214e-01 2.286734e-04 1.305592e-01 1.102299e-01 1.209088e-01 1.781075e-01 1.558944e-01 1.355694e-01 1.796172e-01 2.554848e-01 1.821221e-01 1.795623e-01 1.404368e-01 1.468754e-01 3.330464e-05
<GCONST> 5.760146e+01
<MIXTURE> 5 1.806324e-01
<MEAN> 39
 1.909896e-01 1.289561e+01 -6.044889e-01 -5.373080e-01 -6.935088e+00 -6.438070e+00 -7.369106e+00 -7.230834e-01 -4.294683e+00 -6.318389e-01 -6.119769e-01 -2.392212e+00 8.163524e-01 -7.735473e-03 1.026071e+00 1.776667e-02 3.637677e-01 -3.708277e-01 -9.056860e-02 -2.576780e-01 -4.830199e-02 -3.167050e-01 -8.425309e-03 -4.926987e-02 2.969969e-01 6.380893e-03 -3.404951e-02 -1.454244e-01 -6.149581e-02 -3.359130e-01 2.352437e-01 6.397928e-02 1.595116e-01 7.984601e-02 3.347718e-01 -2.879610e-02 1.279245e-02 1.821928e-02 8.220236e-04
<VARIANCE> 39
 1.080803e+01 2.925938e+01 3.013568e+01 2.262247e+01 2.139078e+01 2.969387e+01 3.959025e+01 3.611318e+01 3.201300e+01 3.315054e+01 5.237232e+01 3.665721e+01 4.923686e-03 3.686914e-01 8.127714e-01 1.251636e+00 1.148743e+00 1.357317e+00 1.906907e+00 2.007210e+00 1.547351e+00 1.572832e+00 2.113687e+00 1.637561e+00 1.486487e+00 1.305962e-04 4.280885e-02 1.121605e-01 1.741112e-01 2.097078e-01 2.539905e-01 3.653437e-01 3.801838e-01 3.837324e-01 2.673777e-01 3.023176e-01 3.009033e-01 3.353123e-01 1.115025e-05
<GCONST> 7.211652e+01
<MIXTURE> 6 5.252854e-02
<MEAN> 39
 3.928756e+00 1.501000e+01 -3.018008e+00 -1.818770e-01 -3.152676e+00 -3.180025e+00 3.491224e+00 2.995903e+00 7.025905e-01 4.782831e+00 7.856781e-02 7.309424e+00 6.765611e-01 -8.507302e-02 5.361328e-01 -3.867297e-01 -1.175195e-01 -6.810036e-01 -5.769520e-01 -3.526754e-01 -7.297273e-02 1.287468e-02 -7.288529e-01 -7.274270e-01 -1.762736e-01 2.755020e-02 -2.964865e-01 -3.088515e-01 -2.178268e-01 -1.031692e-01 -2.154917e-01 -3.564545e-01 -4.431076e-01 -3.803945e-01 -3.519795e-01 -6.101797e-01 -5.628819e-01 -5.968035e-01 8.613393e-03
<VARIANCE> 39
 5.625913e+00 1.349451e+01 2.247213e+01 1.138970e+01 1.524797e+01 1.006603e+01 2.178190e+01 2.208136e+01 1.761286e+01 3.748682e+01 1.697993e+01 2.366617e+01 8.007535e-03 2.823350e-01 6.448914e-01 4.780173e-01 7.529233e-01 5.896073e-01 7.734197e-01 1.070764e+00 1.343083e+00 6.941221e-01 1.378798e+00 1.242579e+00 1.522107e+00 4.496190e-04 8.358167e-02 6.654891e-02 1.213411e-01 1.155561e-01 1.475599e-01 1.317212e-01 2.716733e-01 1.595342e-01 1.801482e-01 2.756287e-01 3.160827e-01 2.732028e-01 5.954846e-05
<GCONST> 5.844296e+01
<MIXTURE> 7 1.185691e-01
<MEAN> 39
 4.986865e-01 1.303764e+01 -1.059686e+00 -3.533563e+00 -6.709711e+00 -3.822386e+00 -9.131244e+00 2.074941e-01 -1.812442e+00 -3.422272e+00 3.679398e+00 -3.977239e+00 7.978504e-01 -9.584067e-01 1.004687e+00 -1.754909e-01 -3.170670e-01 -3.907901e-02 -8.454572e-03 -5.400513e-01 2.194823e-02 -5.023094e-02 -4.608047e-01 5.512753e-01 -4.450924e-01 4.915864e-02 -1.476512e-01 -7.807115e-01 1.987595e-01 3.894686e-01 3.542015e-01 2.431236e-01 6.300822e-01 1.667746e-02 2.426549e-01 2.154162e-01 -2.221560e-01 4.225805e-01 -2.586321e-02
<VARIANCE> 39
 8.305068e+00 4.976378e+01 1.802577e+01 1.702115e+01 2.690996e+01 2.825715e+01 2.836105e+01 2.855939e+01 2.469258e+01 2.542082e+01 2.486075e+01 1.898777e+01 1.065120e-02 5.627654e-01 1.864372e+00 1.259200e+00 1.699942e+00 2.032066e+00 1.996338e+00 2.136941e+00 3.456743e+00 2.129928e+00 1.935327e+00 1.986082e+00 2.109300e+00 6.544709e-04 1.718027e-01 3.825518e-01 2.596408e-01 2.603674e-01 4.212087e-01 3.211258e-01 3.418632e-01 3.581315e-01 3.406681e-01 2.905660e-01 3.429433e-01 2.808525e-01 4.105223e-04
<GCONST> 8.257378e+01
<MIXTURE> 8 1.044205e-01
<MEAN> 39
 1.461062e+00 1.315966e+01 -2.524094e+00 -9.510447e-01 -4.728902e+00 -4.274788e+00 1.293290e+00 1.175656e+00 -1.542561e-01 1.742596e+00 -3.031101e+00 4.638555e+00 7.933699e-01 -9.945018e-01 -4.816995e-01 -9.227356e-01 -4.849188e-01 -9.290823e-01 -1.044839e+00 -1.506221e+00 -1.350276e+00 -1.405935e+00 -1.579491e+00 -1.299141e+00 -6.239240e-01 3.673805e-02 -1.584855e-01 -3.691083e-01 -1.059657e-01 -5.582206e-02 -3.920613e-03 -1.975359e-01 -2.191591e-01 -2.175755e-01 -1.637611e-01 -1.375514e-01 -2.279172e-02 -1.377172e-01 -4.799175e-03
<VARIANCE> 39
 1.415694e+01 2.709299e+01 1.516751e+01 1.349864e+01 9.769034e+00 1.287174e+01 1.548627e+01 2.677379e+01 1.800920e+01 2.137302e+01 1.825564e+01 1.902610e+01 6.770225e-03 5.649213e-01 5.162815e-01 5.531436e-01 8.729380e-01 1.122788e+00 1.176573e+00 1.168817e+00 1.109704e+00 1.300397e+00 1.540882e+00 2.049456e+00 2.442760e+00 3.311280e-04 9.341366e-02 1.132535e-01 1.165681e-01 1.676162e-01 2.215241e-01 1.563190e-01 1.862146e-01 2.277452e-01 2.167467e-01 2.231107e-01 2.634793e-01 2.530944e-01 5.157195e-05
<GCONST> 6.287208e+01
<MIXTURE> 9 5.924538e-02
<MEAN> 39
 -3.265380e+00 1.147322e+01 -6.271652e+00 -5.233171e+00 -1.117193e+01 -1.162594e+01 -6.727085e+00 -5.267569e+00 -7.767114e+00 -5.128736e+00 -6.947605e+00 -2.550869e+00 8.521641e-01 -6.322347e-02 -8.417016e-02 -9.177139e-02 3.866962e-01 -3.538329e-01 2.259470e-01 -3.373382e-01 -4.655948e-01 -5.228441e-01 -6.153854e-01 -6.000077e-01 -5.830766e-02 1.032969e-02 3.301732e-01 1.214306e-01 4.966771e-01 3.281047e-01 7.295029e-01 6.545224e-01 5.766144e-01 7.261736e-01 7.428737e-01 6.752086e-01 5.314173e-01 5.045452e-01 -2.009010e-03
<VARIANCE> 39
 1.103075e+01 2.729711e+01 1.675024e+01 1.704251e+01 1.085807e+01 1.564849e+01 3.732732e+01 1.918308e+01 3.157618e+01 1.888880e+01 3.046762e+01 4.858413e+01 7.579018e-03 3.469639e-01 5.301512e-01 6.396376e-01 1.607115e+00 1.093680e+00 1.135120e+00 1.338620e+00 1.412927e+00 1.046891e+00 1.831535e+00 2.586869e+00 2.248107e+00 1.634703e-04 5.626675e-02 1.608112e-01 1.628200e-01 2.849383e-01 1.526682e-01 2.988325e-01 2.176775e-01 2.134778e-01 2.275027e-01 2.559591e-01 3.015009e-01 4.154632e-01 4.605202e-05
<GCONST> 6.759858e+01
<MIXTURE> 10 5.902808e-02
<MEAN> 39
 -1.020262e+00 1.508793e+01 5.460687e-01 -3.611217e+00 -3.606352e+00 -5.593387e+00 -8.788391e+00 -6.338654e-01 -8.267775e-01 -4.124191e+00 6.789268e+00 -3.125024e+00 8.350377e-01 -2.379804e-01 5.697911e-01 -1.886862e-01 4.328764e-01 -2.363013e-01 1.471551e-01 -2.074322e-01 -1.354140e-02 -3.769194e-01 -4.151466e-01 1.292695e-03 -4.314414e-01 1.155499e-02 4.242347e-02 -1.885144e-01 8.237475e-02 -1.284575e-01 5.327678e-02 1.129349e-02 3.219524e-02 5.788307e-02 7.958759e-02 1.001017e-01 -1.783914e-01 1.686292e-01 -8.705046e-04
<VARIANCE> 39
 5.632817e+00 1.743841e+01 6.696965e+00 1.383387e+01 1.271770e+01 1.001070e+01 9.143195e+00 1.444277e+01 1.850670e+01 2.717318e+01 1.034212e+01 7.995360e+00 4.845248e-03 2.038277e-01 2.393867e-01 2.871163e-01 4.015706e-01 5.059775e-01 4.974986e-01 5.520710e-01 4.113272e-01 8.032697e-01 4.321941e-01 6.745874e-01 7.965610e-01 2.033534e-04 2.467218e-02 5.382479e-02 4.989905e-02 9.061752e-02 7.465516e-02 7.553513e-02 8.081688e-02 8.058111e-02 1.050196e-01 1.261815e-01 7.684401e-02 1.008482e-01 2.062011e-05
<GCONST> 3.539888e+01
<MIXTURE> 11 5.902808e-02
<MEAN> 39
 -1.020262e+00 1.508793e+01 5.460687e-01 -3.611217e+00 -3.606352e+00 -5.593387e+00 -8.788391e+00 -6.338654e-01 -8.267775e-01 -4.124191e+00 6.789268e+00 -3.125024e+00 8.350377e-01 -2.379804e-01 5.697911e-01 -1.886862e-01 4.328764e-01 -2.363013e-01 1.471551e-01 -2.074322e-01 -1.354140e-02 -3.769194e-01 -4.151466e-01 1.292695e-03 -4.314414e-01 1.155499e-02 4.242347e-02 -1.885144e-01 8.237475e-02 -1.284575e-01 5.327678e-02 1.129349e-02 3.219524e-02 5.788307e-02 7.958759e-02 1.001017e-01 -1.783914e-01 1.686292e-01 -8.705046e-04
<VARIANCE> 39
 5.632817e+00 1.743841e+01 6.696965e+00 1.383387e+01 1.271770e+01 1.001070e+01 9.143195e+00 1.444277e+01 1.850670e+01 2.717318e+01 1.034212e+01 7.995360e+00 4.845248e-03 2.038277e-01 2.393867e-01 2.871163e-01 4.015706e-01 5.059775e-01 4.974986e-01 5.520710e-01 4.113272e-01 8.032697e-01 4.321941e-01 6.745874e-01 7.965610e-01 2.033534e-04 2.467218e-02 5.382479e-02 4.989905e-02 9.061752e-02 7.465516e-02 7.553513e-02 8.081688e-02 8.058111e-02 1.050196e-01 1.261815e-01 7.684401e-02 1.008482e-01 2.062011e-05
<GCONST> 3.539888e+01
<MIXTURE> 12 1.012907e-01
<MEAN> 39
 -1.255396e+00 1.187021e+01 -4.374915e+00 -1.555485e+00 -6.766135e+00 -6.546416e+00 -1.484234e+00 -1.703115e+00 -3.511993e+00 -1.205459e+00 -5.763443e+00 3.949835e+00 8.482400e-01 -8.543710e-01 -7.530625e-01 -8.877313e-01 -3.216140e-01 -8.876404e-01 -1.302926e+00 -1.557538e+00 -1.646440e+00 -1.481930e+00 -1.440511e+00 -1.184957e+00 -6.036416e-01 2.858006e-02 2.522453e-01 -2.879546e-03 2.500131e-01 1.277403e-01 2.188553e-01 2.516174e-01 2.070411e-01 2.490312e-01 3.892407e-01 3.117964e-01 3.398624e-01 1.165001e-01 -7.810620e-03
<VARIANCE> 39
 1.359872e+01 2.877479e+01 1.828697e+01 1.389604e+01 1.392125e+01 1.341288e+01 1.951584e+01 2.592479e+01 1.639766e+01 2.090573e+01 1.713857e+01 1.961771e+01 6.176809e-03 3.384495e-01 5.247669e-01 7.197118e-01 8.670913e-01 9.657857e-01 1.049756e+00 9.348220e-01 1.373780e+00 1.148363e+00 1.523115e+00 1.686654e+00 2.251956e+00 2.232785e-04 6.311000e-02 8.405828e-02 7.203764e-02 1.180396e-01 1.583110e-01 1.443333e-01 1.987702e-01 1.755843e-01 2.475383e-01 2.666992e-01 2.337475e-01 2.463546e-01 4.163888e-05
<GCONST> 5.996000e+01
<STATE> 4
<NUMMIXES> 12
<MIXTURE> 1 7.017880e-02
<MEAN> 39
 -1.985523e+00 1.084196e+01 -3.667570e+00 -3.242102e+00 -5.249561e+00 -4.438179e+00 -2.558035e+00 -1.696854e+00 3.324744e+00 8.705590e-01 5.026350e+00 4.438818e+00 8.816799e-01 -1.628077e-01 3.196850e-01 2.686316e-01 4.896599e-01 7.894561e-02 9.585979e-02 1.962641e-01 6.083252e-02 5.686743e-01 4.591129e-01 5.013686e-01 6.266732e-01 1.711389e-02 1.414758e-01 -7.535928e-02 8.305002e-02 8.491956e-02 9.397043e-02 7.080613e-02 1.167325e-01 1.308137e-01 -7.564420e-02 -6.574468e-02 -3.397169e-01 -2.865310e-01 -6.976629e-03
<VARIANCE> 39
 1.972969e+01 4.525351e+01 3.930140e+01 1.978872e+01 2.928977e+01 3.362780e+01 3.462599e+01 4.573580e+01 6.531316e+01 1.028606e+02 5.018589e+01 1.028292e+02 1.121771e-02 7.958355e-01 1.022490e+00 1.285136e+00 1.433714e+00 1.720090e+00 1.800448e+00 2.058940e+00 1.789841e+00 2.179353e+00 2.586792e+00 2.524191e+00 3.393912e+00 2.225311e-04 1.085163e-01 1.636468e-01 2.301609e-01 2.683340e-01 3.193142e-01 2.303849e-01 2.731607e-01 3.537046e-01 4.838716e-01 3.902217e-01 3.924640e-01 4.260391e-01 1.109018e-04
<GCONST> 8.624146e+01
<MIXTURE> 2 1.050985e-01
<MEAN> 39
 -1.565915e+00 9.282678e+00 -3.907545e+00 -9.135403e-01 -5.178364e+00 -4.955425e+00 -3.772478e+00 -2.258014e+00 -4.656140e+00 -8.142838e-01 -1.716992e+00 5.196060e+00 9.017351e-01 3.490752e-02 -8.918183e-02 8.939644e-02 2.314713e-01 1.068042e-02 -1.704192e-01 -2.913080e-01 -2.175744e-01 -1.522076e-01 -2.027328e-01 6.430672e-02 1.647376e-01 1.403513e-02 1.545140e-01 7.202125e-02 6.077749e-02 8.876971e-04 5.599373e-02 1.031948e-01 1.981674e-01 3.183387e-01 3.307795e-01 1.523489e-01 -7.420384e-03 -1.347235e-01 -5.651550e-03
<VARIANCE> 39
 1.262688e+01 2.422364e+01 8.412701e+00 1.209217e+01 1.696298e+01 1.798038e+01 1.798914e+01 1.449550e+01 2.419533e+01 1.733900e+01 3.009719e+01 3.538921e+01 4.125967e-03 2.407766e-01 2.532731e-01 3.449543e-01 4.642920e-01 5.007857e-01 6.019468e-01 6.458479e-01 8.358861e-01 5.354533e-01 5.707082e-01 7.250612e-01 7.533623e-01 6.373067e-05 5.260441e-02 3.866087e-02 7.031406e-02 6.871969e-02 1.018323e-01 1.095786e-01 1.072176e-01 1.266686e-01 1.082293e-01 9.376121e-02 1.344340e-01 1.407576e-01 1.386346e-05
<GCONST> 4.286148e+01
<MIXTURE> 3 1.390002e-01
<MEAN> 39
 -1.861611e+00 1.543555e+01 -2.740763e-03 -1.174861e+00 -6.785326e+00 -2.907688e+00 -1.113496e+01 4.172757e-01 -2.981416e+00 -4.917755e+00 4.293585e+00 -4.255303e+00 8.680922e-01 -6.493729e-02 2.345572e-01 -1.860431e-02 8.564506e-02 7.057607e-02 2.262722e-01 1.688159e-02 -1.011691e-01 4.560716e-02 -1.826482e-01 7.955880e-02 -2.238312e-02 9.960854e-03 1.146116e-01 -1.654727e-01 5.405036e-02 -1.032690e-01 1.391510e-01 -1.057454e-01 1.168587e-01 -5.575306e-03 2.425751e-01 1.629966e-01 -9.247073e-02 -4.919572e-03 -3.372204e-03
<VARIANCE> 39
 7.506171e+00 2.779481e+01 1.346850e+01 1.479274e+01 1.690936e+01 2.529765e+01 2.576238e+01 2.506659e+01 3.114773e+01 2.502243e+01 2.042704e+01 1.640417e+01 3.978211e-03 1.876142e-01 4.384475e-01 4.963087e-01 7.094973e-01 6.676004e-01 7.867655e-01 1.100996e+00 1.331096e+00 1.208971e+00 1.036108e+00 1.081737e+00 9.778655e-01 7.139629e-05 5.947133e-02 7.640764e-02 9.029053e-02 1.225816e-01 1.200662e-01 1.304812e-01 1.782075e-01 1.813684e-01 1.842826e-01 1.488599e-01 1.703940e-01 1.718529e-01 1.187844e-05
<GCONST> 5.276466e+01
<MIXTURE> 4 9.530258e-02
<MEAN> 39
 -2.670795e+00 1.859566e+01 5.282918e-01 -3.388597e+00 -3.777428e+00 -5.831419e+00 -8.850073e+00 -1.825179e+00 -2.134317e-04 -5.633250e+00 7.383186e+00 -3.396245e+00 8.836458e-01 -5.935017e-03 2.984217e-02 -3.858902e-03 -5.050562e-02 -3.070586e-02 -2.339364e-02 -1.774785e-04 5.486976e-02 2.838844e-02 5.366512e-02 -6.065762e-02 2.363314e-02 1.103599e-03 1.427762e-02 -4.426346e-02 3.109508e-02 -1.662106e-02 -1.493650e-02 -1.281572e-02 8.720259e-03 2.611171e-02 3.298530e-02 2.314826e-02 -2.655713e-02 4.834848e-02 -9.697737e-04
<VARIANCE> 39
 4.268785e+00 2.121858e+01 7.199510e+00 3.749082e+00 7.660862e+00 1.440972e+01 4.533812e+00 8.789634e+00 1.020212e+01 8.497731e+00 6.726466e+00 3.249249e+00 3.163588e-03 3.552452e-02 9.304564e-02 1.068620e-01 1.397834e-01 1.200380e-01 1.311098e-01 9.569519e-02 1.498370e-01 1.458336e-01 1.990647e-01 9.963199e-02 1.043175e-01 3.754082e-05 6.230911e-03 1.670016e-02 1.396267e-02 1.875553e-02 1.974013e-02 2.056871e-02 2.143514e-02 2.438817e-02 2.524383e-02 3.305057e-02 2.017011e-02 1.463147e-02 3.730629e-06
<GCONST> -7.449322e+00
<MIXTURE> 5 4.365003e-02
<MEAN> 39
 -1.816077e+00 8.836442e+00 -2.218797e+00 -1.180339e+00 -3.427801e+00 -3.623887e+00 -3.817492e+00 1.102093e+00 -5.380692e+00 2.995397e+00 1.255010e+00 8.139517e+00 9.443234e-01 1.898793e-01 2.797035e-01 3.140782e-01 3.398758e-01 4.712957e-01 2.834092e-01 3.412271e-01 2.453552e-01 2.104252e-01 2.101215e-01 1.025119e-01 2.402853e-01 1.916931e-03 8.570728e-03 -5.789946e-02 -2.872225e-02 -2.684535e-02 -5.944716e-02 -6.761273e-02 7.353765e-03 -5.871080e-02 4.372077e-02 -2.658292e-02 -7.542683e-02 -5.178325e-02 -1.677659e-03
<VARIANCE> 39
 1.585947e+01 9.435192e+00 3.912446e+00 1.214187e+01 3.119484e+00 1.147483e+01 1.202948e+01 1.065000e+01 4.274114e+01 1.673494e+01 4.422247e+01 4.331212e+01 1.456729e-03 8.414988e-02 9.852798e-02 1.820074e-01 2.317095e-01 3.108760e-01 2.346860e-01 1.889012e-01 2.802227e-01 2.349746e-01 1.702527e-01 2.948496e-01 2.715742e-01 3.953593e-05 1.056427e-02 2.043415e-02 2.732179e-02 5.303565e-02 3.133772e-02 3.402308e-02 4.115782e-02 4.124638e-02 4.087255e-02 4.460477e-02 4.086259e-02 5.479117e-02 3.730629e-06
<GCONST> 1.407099e+01
<MIXTURE> 6 1.031217e-01
<MEAN> 39
 -1.241205e+00 1.800280e+01 1.465645e-01 -2.088318e+00 -4.956411e+00 -7.608278e+00 -9.685493e+00 1.403991e+00 -6.564325e+00 2.171784e+00 -2.870691e-01 -2.967207e-03 8.366610e-01 -1.751298e-02 7.105500e-02 -1.680925e-01 -9.990870e-02 9.391718e-02 -1.256378e-01 4.261528e-02 -2.732437e-01 6.126560e-02 -1.883461e-01 2.725177e-02 3.936164e-02 2.368887e-03 1.071786e-02 -3.530490e-02 2.638643e-03 -5.377096e-02 -2.839463e-02 -4.842317e-02 2.565781e-02 3.626698e-02 8.145880e-02 -1.249989e-02 5.574060e-02 -6.781496e-02 -1.195868e-03
<VARIANCE> 39
 2.404440e+00 2.443605e+01 1.221775e+01 5.130870e+00 6.993086e+00 1.113837e+01 1.216565e+01 3.315607e+01 1.612646e+01 2.205101e+01 3.165051e+01 1.634280e+01 2.144249e-03 4.782527e-02 1.160679e-01 1.174846e-01 1.720668e-01 3.550608e-01 2.790797e-01 2.863103e-01 2.926492e-01 3.031086e-01 2.568786e-01 2.342492e-01 4.397429e-01 3.754082e-05 9.225361e-03 2.031211e-02 2.299436e-02 2.942196e-02 5.059496e-02 5.573718e-02 5.882022e-02 5.732873e-02 5.940461e-02 5.125432e-02 5.157627e-02 7.953557e-02 3.730629e-06
<GCONST> 1.608559e+01
<MIXTURE> 7 7.803153e-02
<MEAN> 39
 -9.048569e-01 1.351063e+01 -5.611893e+00 -3.249479e+00 -3.942955e+00 -9.099527e+00 -1.252917e-01 -1.349911e+00 -3.229481e+00 -3.613222e+00 -5.025850e+00 1.406483e+00 7.861970e-01 5.594094e-03 2.369242e-02 -3.116488e-02 -4.387659e-03 9.405416e-03 4.798022e-03 1.280445e-01 -3.995510e-02 8.624368e-02 -1.987523e-02 -1.127103e-02 2.066740e-03 8.644956e-04 9.466556e-04 -1.914373e-02 -1.351653e-02 -2.227300e-02 -1.936285e-02 -2.337271e-02 -2.981343e-02 -3.652292e-02 -1.064472e-02 3.116915e-02 -3.028350e-02 -3.902150e-02 -8.691773e-04
<VARIANCE> 39
 2.614864e+00 3.991312e+00 6.806736e+00 1.118193e+01 2.297052e+01 2.664529e+01 8.442322e+00 1.211740e+01 2.379407e+01 1.245632e+01 1.031805e+01 9.035850e+00 1.038968e-02 3.617842e-02 7.744789e-02 9.072233e-02 2.079072e-01 1.557956e-01 2.303722e-01 1.898390e-01 2.362248e-01 1.885816e-01 1.590842e-01 1.969517e-01 2.225246e-01 3.754082e-05 7.013810e-03 8.904781e-03 1.625053e-02 2.853066e-02 2.143932e-02 4.688369e-02 2.575199e-02 3.218670e-02 2.275030e-02 2.523950e-02 2.614236e-02 3.212620e-02 3.730629e-06
<GCONST> 3.556051e+00
<MIXTURE> 8 3.207690e-02
<MEAN> 39
 -4.915014e+00 9.853132e+00 -1.121921e+00 -1.747206e+00 -3.174077e+00 -2.479120e+00 -4.307282e-01 -3.757695e-01 5.106549e-01 4.912914e+00 6.989018e+00 1.208039e+01 9.688485e-01 -1.523477e-01 -3.858944e-01 -3.401313e-01 -3.383615e-01 -1.856071e-01 -4.704442e-01 -2.422045e-01 -2.599745e-01 -8.841291e-02 -9.939741e-02 -7.295239e-04 -1.098656e-01 6.017517e-04 -4.776603e-03 -3.856260e-02 -4.611713e-02 -6.648764e-02 -6.402470e-02 -8.223970e-02 -2.429512e-02 -4.401646e-02 -1.052207e-02 -3.045002e-02 -9.236910e-02 -1.325560e-01 -9.186267e-04
<VARIANCE> 39
 1.046167e+01 7.644808e+00 3.920747e+00 1.057451e+01 6.168686e+00 1.014263e+01 5.409511e+00 4.746521e+00 2.475104e+01 2.719306e+01 3.868677e+01 2.977049e+01 8.178990e-04 4.810518e-02 1.448849e-01 1.460595e-01 1.756312e-01 2.062545e-01 1.544302e-01 2.818545e-01 1.851709e-01 1.165513e-01 1.856744e-01 2.732829e-01 3.652057e-01 3.754082e-05 9.971881e-03 2.329144e-02 2.696122e-02 3.081442e-02 4.081588e-02 2.197741e-02 4.409366e-02 4.183582e-02 2.680444e-02 3.351893e-02 5.362306e-02 5.668226e-02 3.730629e-06
<GCONST> 8.178455e+00
<MIXTURE> 9 9.016926e-02
<MEAN> 39
 -1.374282e+00 1.162155e+01 -5.302702e+00 -2.518698e+00 -8.255579e+00 -8.068099e+00 -4.337606e+00 -4.549174e+00 -5.692397e+00 -3.802955e+00 -6.474651e+00 3.802682e-01 8.719600e-01 3.771015e-01 5.309666e-01 5.208463e-01 8.477613e-01 8.142439e-01 8.730676e-01 6.514781e-01 6.865247e-01 7.280307e-01 5.382470e-01 6.541387e-01 6.369233e-01 8.980135e-03 7.982288e-02 1.207892e-01 1.970238e-01 9.343906e-02 2.812195e-01 1.634485e-01 2.838183e-01 3.968514e-01 3.508597e-01 3.789604e-01 3.450302e-01 1.807960e-01 -2.939589e-03
<VARIANCE> 39
 1.168936e+01 2.539452e+01 1.573869e+01 1.641281e+01 1.474892e+01 1.891020e+01 1.838812e+01 2.544036e+01 2.324355e+01 2.248154e+01 3.000079e+01 3.596069e+01 8.256461e-03 2.682129e-01 4.374642e-01 5.239854e-01 7.019835e-01 7.358860e-01 9.715869e-01 1.145441e+00 9.307452e-01 7.759751e-01 1.073194e+00 1.072287e+00 1.244403e+00 8.400647e-05 4.593238e-02 6.088683e-02 8.099706e-02 1.280072e-01 1.231929e-01 1.461378e-01 1.839922e-01 1.608925e-01 1.906051e-01 1.795545e-01 3.274838e-01 2.250740e-01 1.583104e-05
<GCONST> 5.543420e+01
<MIXTURE> 10 5.957576e-02
<MEAN> 39
 -1.512687e+00 1.274349e+01 -1.084989e+00 -1.597298e+00 -2.185837e+00 -5.517754e+00 -6.639470e+00 2.180418e+00 -3.237914e+00 1.781151e+00 1.813254e+00 2.510098e+00 8.722628e-01 4.266705e-02 -1.365944e-03 -4.136949e-02 -1.286666e-01 1.049701e-01 5.428834e-02 1.054818e-01 -9.069960e-02 -1.259479e-02 -9.310629e-02 3.872626e-02 2.305860e-02 -3.365918e-04 7.788114e-03 6.206040e-03 7.842731e-04 -2.154335e-02 3.233689e-02 -6.385376e-03 1.372865e-02 4.443621e-03 8.332904e-03 -1.714337e-02 1.650177e-02 -2.262316e-02 -6.894283e-04
<VARIANCE> 39
 2.727839e+00 3.071541e+01 1.323464e+00 5.176728e+00 4.144277e+00 3.260934e+00 1.680529e+01 5.762723e+00 3.113791e+01 1.111375e+01 2.274970e+01 3.385505e+01 8.558924e-03 4.475723e-02 4.215535e-02 4.706360e-02 5.753430e-02 6.434423e-02 8.767183e-02 9.357417e-02 1.142437e-01 1.464025e-01 1.960598e-01 1.623602e-01 1.290645e-01 3.754082e-05 4.140945e-03 1.070483e-02 9.735056e-03 8.375642e-03 1.548709e-02 1.177763e-02 1.338610e-02 1.760932e-02 2.969943e-02 3.188754e-02 2.649504e-02 2.361299e-02 3.730629e-06
<GCONST> -9.805955e+00
<MIXTURE> 11 5.129648e-02
<MEAN> 39
 -6.765704e+00 1.307192e+01 2.728269e+00 -2.336011e+00 -7.054959e+00 -2.691454e+00 -7.342034e+00 -2.434689e-01 1.296975e+00 -9.685825e+00 4.643662e+00 -2.580408e+00 9.376549e-01 -6.262102e-02 7.817673e-02 -8.389054e-02 4.574361e-02 1.095112e-01 -1.180631e-01 -5.964321e-02 3.147588e-02 -6.970983e-02 9.876128e-02 -6.800330e-02 -8.760097e-02 2.880015e-03 5.094339e-02 -3.350168e-02 2.890124e-02 -1.134477e-02 4.382699e-02 -2.738125e-02 2.415094e-02 -3.485027e-02 -4.266300e-02 1.059052e-01 -1.444811e-02 6.062055e-02 -2.433284e-03
<VARIANCE> 39
 1.051483e+01 2.380912e+01 7.414753e+00 1.322092e+01 4.917560e+00 5.208224e+00 1.468969e+01 2.196157e+01 1.021924e+01 9.509332e+00 8.812347e+00 1.034348e+01 4.120488e-03 1.216771e-01 1.174234e-01 1.150724e-01 8.351579e-02 2.419643e-01 1.400793e-01 1.590040e-01 2.854193e-01 2.822129e-01 1.836172e-01 1.437059e-01 2.060940e-01 6.284126e-05 3.550512e-02 3.547214e-02 2.583999e-02 1.534711e-02 4.427508e-02 3.042797e-02 2.143372e-02 4.003716e-02 5.196481e-02 3.438753e-02 2.018492e-02 4.371265e-02 3.825353e-06
<GCONST> 8.863140e+00
<MIXTURE> 12 1.324975e-01
<MEAN> 39
 2.014839e-01 1.587279e+01 -2.544538e+00 -1.117345e+00 -6.099117e+00 -7.977221e+00 -4.242218e+00 2.402731e+00 -3.551101e+00 2.328745e-01 -5.917306e+00 2.024016e+00 8.430036e-01 3.396468e-02 2.313629e-01 3.863105e-02 2.393026e-01 -1.223159e-01 -2.314818e-01 -2.448738e-01 -1.866744e-01 2.048229e-01 3.247399e-01 -3.184954e-01 -2.449847e-01 1.114615e-02 6.637781e-04 -1.959992e-01 -1.600859e-01 -1.529190e-01 -1.224622e-02 4.758413e-02 1.800906e-02 -1.794843e-01 -1.425462e-01 -6.263889e-02 2.226242e-01 -6.400776e-02 -2.773224e-03
<VARIANCE> 39
 8.811407e+00 2.220221e+01 1.315691e+01 1.557582e+01 1.997449e+01 1.884552e+01 2.363331e+01 3.128455e+01 2.591330e+01 3.947444e+01 1.815301e+01 3.187593e+01 4.794151e-03 1.471788e-01 3.392312e-01 6.240062e-01 5.024852e-01 5.878181e-01 7.469895e-01 8.415751e-01 1.149495e+00 9.847699e-01 9.431792e-01 8.757101e-01 1.058064e+00 8.929857e-05 2.967661e-02 4.912703e-02 9.525184e-02 1.173088e-01 1.536521e-01 1.275649e-01 1.324050e-01 1.834582e-01 1.644082e-01 2.104178e-01 1.165615e-01 2.570095e-01 1.401948e-05
<GCONST> 5.155466e+01
<STATE> 5
<NUMMIXES> 12
<MIXTURE> 1 6.240005e-02
<MEAN> 39
 -2.237109e+00 1.102746e+01 -6.997044e+00 -2.950114e+00 -6.773971e+00 -6.763805e+00 -1.342574e+00 -1.537149e+00 4.068825e+00 5.473474e+00 1.012685e+01 1.307688e+01 9.024965e-01 4.901024e-02 1.632357e-01 1.838373e-01 3.028729e-01 2.052277e-01 1.138701e-01 1.285588e-01 1.380328e-01 6.613018e-02 3.480091e-03 1.317161e-02 -4.726350e-02 6.814840e-03 8.945041e-02 -1.690585e-02 1.140622e-01 -4.749344e-02 1.019599e-01 1.002910e-01 4.820327e-02 8.527631e-02 -3.472047e-02 -2.536829e-02 -1.479758e-01 -1.105027e-01 -3.216896e-03
<VARIANCE> 39
 2.621267e+01 4.557598e+01 3.671802e+01 1.731787e+01 2.537119e+01 2.986933e+01 2.281002e+01 2.454757e+01 5.196287e+01 8.022067e+01 4.376549e+01 1.074640e+02 7.771023e-03 5.362565e-01 7.826660e-01 1.099550e+00 1.116616e+00 1.589347e+00 1.296527e+00 8.175374e-01 9.090307e-01 9.544023e-01 1.374958e+00 1.051599e+00 2.090319e+00 1.032472e-04 5.334675e-02 8.928160e-02 1.342389e-01 1.715321e-01 2.089115e-01 1.528088e-01 1.570153e-01 1.374619e-01 1.872017e-01 2.083284e-01 1.743183e-01 2.152722e-01 3.227898e-05
<GCONST> 6.848798e+01
<MIXTURE> 2 5.818949e-02
<MEAN> 39
 -2.829390e+00 1.108501e+01 -6.559628e+00 -3.398361e+00 -1.008947e+01 -1.011963e+01 -5.920368e+00 -4.480083e+00 -6.264553e+00 -4.527717e+00 -7.046864e+00 7.589184e-01 8.915530e-01 1.760669e-02 5.554679e-02 -8.069484e-03 -6.424466e-02 -3.741399e-02 9.099358e-02 1.310000e-01 1.600571e-01 9.992741e-02 -7.363684e-02 1.811059e-02 -2.023258e-01 1.198698e-03 1.886643e-01 2.694839e-01 4.101499e-01 3.780506e-01 5.082496e-01 5.238154e-01 5.160605e-01 4.897971e-01 4.868065e-01 3.358517e-01 3.356946e-01 2.282553e-01 -1.173113e-03
<VARIANCE> 39
 1.238577e+01 2.492590e+01 1.270269e+01 1.580885e+01 1.384125e+01 2.309346e+01 2.086984e+01 1.998940e+01 1.966327e+01 2.540115e+01 2.241284e+01 4.348738e+01 4.937569e-03 1.097469e-01 1.821254e-01 2.761264e-01 3.900764e-01 3.696592e-01 4.689685e-01 4.580255e-01 5.448383e-01 3.938389e-01 4.875413e-01 3.884144e-01 4.812215e-01 3.754082e-05 1.496259e-02 3.804096e-02 3.459607e-02 6.640742e-02 6.819179e-02 6.605072e-02 7.579803e-02 6.578337e-02 1.007357e-01 8.415595e-02 9.358207e-02 9.739102e-02 3.771480e-06
<GCONST> 3.329131e+01
<MIXTURE> 3 7.193173e-02
<MEAN> 39
 -1.221625e+00 1.272829e+01 -4.890662e+00 -8.382833e-01 -7.151504e+00 -6.690795e+00 -2.925711e+00 -2.447984e+00 -2.566998e+00 -2.473712e+00 -4.694448e+00 2.203830e+00 8.885865e-01 4.210977e-01 5.989577e-01 7.064304e-01 8.143188e-01 9.560771e-01 9.805110e-01 1.016774e+00 8.892321e-01 8.559530e-01 7.178187e-01 7.665222e-01 5.110716e-01 3.007859e-04 1.698958e-02 -1.599624e-02 3.780797e-02 -2.414743e-02 6.343619e-02 -1.994319e-02 4.874071e-02 -1.800194e-02 -1.267042e-02 7.731368e-02 2.428407e-02 -8.707977e-02 -1.323297e-03
<VARIANCE> 39
 1.672980e+01 2.348175e+01 1.127823e+01 1.277886e+01 1.083043e+01 1.839131e+01 1.530925e+01 2.434646e+01 1.675053e+01 2.038307e+01 1.951491e+01 2.962906e+01 6.936851e-03 1.110126e-01 2.060403e-01 1.967959e-01 3.366280e-01 3.385837e-01 5.151775e-01 5.185512e-01 4.888174e-01 5.282320e-01 5.877121e-01 4.890206e-01 5.439072e-01 3.754082e-05 1.481611e-02 2.806121e-02 3.986983e-02 5.808352e-02 8.259631e-02 7.573511e-02 7.812863e-02 8.600821e-02 8.749291e-02 7.327124e-02 8.950968e-02 7.130607e-02 3.730629e-06
<GCONST> 3.223019e+01
<MIXTURE> 4 1.262426e-01
<MEAN> 39
 -1.085150e+00 1.691469e+01 -2.190773e-01 -1.100875e+00 -5.660239e+00 -3.024819e+00 -1.164014e+01 1.161163e+00 -9.592878e-01 -5.353055e+00 5.514585e+00 -4.945963e+00 8.582274e-01 1.574968e-02 3.811572e-02 3.184254e-03 -3.735286e-02 2.047732e-01 -1.554625e-02 6.054235e-02 -5.140117e-02 8.968905e-02 -5.113750e-03 1.058167e-01 -2.839005e-02 -5.278027e-04 1.403080e-02 -5.207546e-02 1.893678e-02 -8.076565e-02 2.953145e-02 -4.691846e-02 3.633259e-02 -2.640074e-02 6.270984e-03 2.432262e-02 1.178130e-02 4.415346e-02 -9.025646e-04
<VARIANCE> 39
 8.106287e+00 1.799684e+01 9.157109e+00 1.257916e+01 1.730535e+01 1.763762e+01 1.504195e+01 1.517445e+01 1.543080e+01 2.077760e+01 1.209499e+01 1.124238e+01 3.688074e-03 8.802558e-02 8.995458e-02 1.806765e-01 2.092008e-01 1.998848e-01 2.890583e-01 3.924365e-01 3.520178e-01 3.682631e-01 4.008647e-01 2.679397e-01 2.725786e-01 3.754082e-05 1.326845e-02 1.455250e-02 3.221362e-02 3.519409e-02 3.827218e-02 4.728027e-02 5.912754e-02 5.136094e-02 7.773294e-02 7.200197e-02 4.731105e-02 6.045743e-02 3.730629e-06
<GCONST> 1.898600e+01
<MIXTURE> 5 1.113008e-01
<MEAN> 39
 9.728657e-01 1.452717e+01 -3.276078e+00 1.025975e+00 -4.869117e+00 -4.445275e+00 -1.426972e+00 -8.157916e-01 -1.374004e+00 -2.826132e-02 -2.419465e+00 3.342318e+00 8.813026e-01 2.799638e-01 3.511853e-01 2.622663e-01 6.151975e-01 5.090153e-01 4.934914e-01 6.070890e-01 3.188661e-01 5.512422e-01 6.558150e-01 5.248542e-01 5.487747e-01 3.145285e-03 -1.595821e-01 -2.775459e-01 -2.685444e-01 -3.958872e-01 -3.162153e-01 -3.774914e-01 -2.563125e-01 -3.286237e-01 -2.817526e-01 -2.733289e-01 -2.665909e-01 -2.805559e-01 -1.467442e-03
<VARIANCE> 39
 1.420551e+01 2.890077e+01 1.364067e+01 1.212121e+01 1.448035e+01 1.976763e+01 1.566634e+01 2.600329e+01 1.998307e+01 2.399035e+01 3.623059e+01 3.069709e+01 6.519788e-03 1.473694e-01 3.853048e-01 4.161191e-01 5.014009e-01 7.533189e-01 8.070346e-01 1.097194e+00 1.015085e+00 8.158482e-01 8.029454e-01 9.510351e-01 1.063088e+00 5.683906e-05 3.236137e-02 5.792567e-02 8.619364e-02 1.013030e-01 1.004941e-01 1.715057e-01 1.753477e-01 1.386773e-01 1.480318e-01 1.821490e-01 1.705471e-01 1.817235e-01 6.580144e-06
<GCONST> 4.979382e+01
<MIXTURE> 6 1.155024e-01
<MEAN> 39
 6.689072e-01 1.228689e+01 -2.743665e+00 1.717711e+00 -4.412889e+00 -5.056603e+00 -4.239134e+00 -2.186636e-01 -4.203054e+00 1.304664e-01 -5.111291e+00 1.443183e+00 9.061089e-01 8.555373e-02 8.018114e-02 1.126249e-01 1.574953e-01 8.726513e-02 -5.779347e-03 1.568870e-01 6.514905e-02 3.085019e-01 1.408296e-01 5.665038e-03 -1.350540e-01 -6.224492e-04 -6.464224e-02 -5.496217e-02 -5.378167e-02 -1.018354e-01 -8.681529e-02 -1.227812e-01 -8.268620e-02 -6.930967e-02 2.421688e-02 -6.981973e-02 8.157413e-03 -1.179892e-01 -1.227915e-03
<VARIANCE> 39
 8.535366e+00 9.850340e+00 8.134343e+00 1.328909e+01 1.351633e+01 2.650282e+01 2.258069e+01 3.934542e+01 1.385424e+01 1.789373e+01 2.660361e+01 3.331792e+01 2.267951e-03 8.723942e-02 1.382228e-01 1.794466e-01 2.849788e-01 2.942136e-01 3.899258e-01 3.532773e-01 4.736011e-01 3.468859e-01 4.343004e-01 3.410010e-01 4.324481e-01 3.754082e-05 1.244948e-02 2.291715e-02 4.259061e-02 4.880718e-02 7.474541e-02 6.933695e-02 8.142424e-02 7.772147e-02 8.689374e-02 8.424482e-02 1.114545e-01 8.887260e-02 3.730629e-06
<GCONST> 2.763871e+01
<MIXTURE> 7 1.144857e-01
<MEAN> 39
 -5.129184e-01 1.366570e+01 -5.453781e+00 -2.328974e-01 -6.469616e+00 -8.259953e+00 -3.140324e+00 -3.521569e+00 -2.174086e+00 -2.918255e+00 -5.817726e+00 2.666149e+00 8.789788e-01 -5.992578e-02 -1.333879e-01 -2.697005e-01 -1.203981e-01 -1.532220e-01 -1.628358e-01 -1.706023e-01 -2.645598e-01 -7.512882e-02 -9.526455e-02 -1.789693e-01 -2.148905e-01 -5.380137e-04 -2.439590e-02 -3.210346e-02 4.999882e-03 -8.286979e-02 2.474073e-02 -2.825162e-02 4.203424e-02 3.584509e-03 -2.030707e-02 2.387558e-03 5.694123e-02 -2.661423e-02 -1.245534e-03
<VARIANCE> 39
 1.788643e+01 2.297622e+01 1.312201e+01 1.349893e+01 1.775034e+01 1.749194e+01 1.667771e+01 2.504189e+01 1.795772e+01 2.121652e+01 2.606463e+01 3.799590e+01 6.479779e-03 6.664914e-02 1.518386e-01 1.943396e-01 3.197838e-01 3.270450e-01 3.827643e-01 3.982326e-01 3.680883e-01 4.846802e-01 3.401133e-01 5.100852e-01 4.161693e-01 3.754082e-05 1.387603e-02 2.226796e-02 3.605200e-02 3.545262e-02 5.140309e-02 6.114393e-02 8.602378e-02 7.596896e-02 7.508826e-02 6.256956e-02 6.914439e-02 6.717630e-02 3.730629e-06
<GCONST> 2.876565e+01
<MIXTURE> 8 8.974564e-02
<MEAN> 39
 2.257682e-01 1.427029e+01 -3.535169e+00 7.373714e-01 -5.497880e+00 -4.923530e+00 -9.699464e-01 -3.688360e-01 -1.652113e+00 -7.339746e-01 -4.052505e+00 3.184827e+00 8.768126e-01 -1.926313e-01 -3.820929e-01 -5.398074e-01 -5.172294e-01 -5.234550e-01 -6.639397e-01 -3.979518e-01 -5.790048e-01 -4.937359e-01 -5.131196e-01 -5.306753e-01 -4.940952e-01 1.554201e-03 -1.511268e-01 -2.103031e-01 -2.749933e-01 -3.723435e-01 -3.047559e-01 -3.406207e-01 -3.161647e-01 -3.138318e-01 -2.623842e-01 -2.980705e-01 -2.475662e-01 -2.719460e-01 -1.245240e-03
<VARIANCE> 39
 1.426580e+01 2.570349e+01 1.069354e+01 1.306238e+01 1.173550e+01 2.034900e+01 1.469681e+01 2.171247e+01 2.108733e+01 2.128765e+01 2.266649e+01 3.020225e+01 6.193888e-03 9.901664e-02 1.917491e-01 2.381245e-01 3.128224e-01 3.895207e-01 4.043334e-01 4.710425e-01 4.931555e-01 5.160787e-01 7.028954e-01 5.983416e-01 5.558671e-01 3.754082e-05 1.970376e-02 4.462774e-02 4.741882e-02 6.255175e-02 6.003617e-02 9.839109e-02 9.743938e-02 9.540211e-02 8.589985e-02 9.333902e-02 6.921364e-02 9.829701e-02 4.954140e-06
<GCONST> 3.444117e+01
<MIXTURE> 9 5.910460e-02
<MEAN> 39
 1.295304e+00 1.363142e+01 -6.945367e+00 -2.538112e+00 -9.584938e+00 -7.801195e+00 -5.232195e+00 -3.615672e+00 -4.080683e+00 -5.271896e+00 -7.533127e+00 -1.628120e+00 8.551366e-01 2.202062e-01 3.162732e-01 1.325517e-01 4.271917e-01 4.880050e-01 5.256883e-01 4.452780e-01 2.543400e-01 5.805202e-01 5.367749e-01 3.869438e-01 2.677412e-01 -8.546645e-04 9.189937e-02 1.379214e-01 2.244114e-01 2.260953e-01 3.291623e-01 2.449067e-01 3.849091e-01 2.654119e-01 2.572458e-01 3.277406e-01 2.429989e-01 2.321363e-01 -9.989493e-04
<VARIANCE> 39
 1.161042e+01 1.602979e+01 1.820222e+01 1.686913e+01 1.392408e+01 2.320297e+01 1.765964e+01 3.424760e+01 1.934279e+01 4.015553e+01 2.227482e+01 2.479754e+01 6.657964e-03 7.163488e-02 2.461898e-01 2.789510e-01 4.581647e-01 4.225822e-01 5.938736e-01 5.620750e-01 5.048414e-01 5.635158e-01 6.164186e-01 4.423541e-01 4.888236e-01 3.754082e-05 1.315108e-02 3.219543e-02 4.269446e-02 7.060601e-02 5.179866e-02 8.106424e-02 7.636224e-02 8.138927e-02 1.174817e-01 1.250961e-01 9.829187e-02 1.486647e-01 3.730629e-06
<GCONST> 3.618456e+01
<MIXTURE> 10 5.450660e-02
<MEAN> 39
 -1.744771e+00 1.632075e+01 1.653359e+00 -1.507597e+00 -7.659201e+00 -4.033653e+00 -1.339936e+01 -2.489446e-01 1.178057e+00 -4.933303e+00 4.941504e+00 -5.506790e+00 8.772330e-01 -2.306440e-02 7.444482e-02 4.026745e-02 -1.222574e-01 1.190524e-01 -1.295864e-01 1.087390e-01 1.285104e-01 1.080350e-01 6.971836e-02 -2.210447e-02 -1.917723e-01 1.670565e-03 3.030102e-02 -8.990080e-02 -4.730061e-02 -6.405916e-02 7.196558e-02 -5.854851e-02 1.154626e-01 -1.689818e-02 -5.283966e-02 -2.143017e-03 -5.528213e-02 1.158527e-01 -1.567690e-03
<VARIANCE> 39
 1.003917e+01 2.616079e+01 1.374772e+01 2.461390e+01 2.729888e+01 2.945316e+01 2.787718e+01 3.120762e+01 2.926307e+01 2.508256e+01 2.160058e+01 2.330023e+01 4.713289e-03 1.133464e-01 2.424030e-01 4.112816e-01 4.923896e-01 5.178321e-01 8.024411e-01 8.565319e-01 9.685538e-01 9.994113e-01 7.221655e-01 7.142012e-01 7.205492e-01 3.754082e-05 1.540573e-02 4.977576e-02 7.288253e-02 8.427346e-02 1.084051e-01 1.585595e-01 1.357000e-01 2.148140e-01 2.226214e-01 1.427967e-01 1.222913e-01 9.916751e-02 4.256136e-06
<GCONST> 4.646296e+01
<MIXTURE> 11 5.450660e-02
<MEAN> 39
 -1.744771e+00 1.632075e+01 1.653359e+00 -1.507597e+00 -7.659201e+00 -4.033653e+00 -1.339936e+01 -2.489446e-01 1.178057e+00 -4.933303e+00 4.941504e+00 -5.506790e+00 8.772330e-01 -2.306440e-02 7.444482e-02 4.026745e-02 -1.222574e-01 1.190524e-01 -1.295864e-01 1.087390e-01 1.285104e-01 1.080350e-01 6.971836e-02 -2.210447e-02 -1.917723e-01 1.670565e-03 3.030102e-02 -8.990080e-02 -4.730061e-02 -6.405916e-02 7.196558e-02 -5.854851e-02 1.154626e-01 -1.689818e-02 -5.283966e-02 -2.143017e-03 -5.528213e-02 1.158527e-01 -1.567690e-03
<VARIANCE> 39
 1.003917e+01 2.616079e+01 1.374772e+01 2.461390e+01 2.729888e+01 2.945316e+01 2.787718e+01 3.120762e+01 2.926307e+01 2.508256e+01 2.160058e+01 2.330023e+01 4.713289e-03 1.133464e-01 2.424030e-01 4.112816e-01 4.923896e-01 5.178321e-01 8.024411e-01 8.565319e-01 9.685538e-01 9.994113e-01 7.221655e-01 7.142012e-01 7.205492e-01 3.754082e-05 1.540573e-02 4.977576e-02 7.288253e-02 8.427346e-02 1.084051e-01 1.585595e-01 1.357000e-01 2.148140e-01 2.226214e-01 1.427967e-01 1.222913e-01 9.916751e-02 4.256136e-06
<GCONST> 4.646296e+01
<MIXTURE> 12 8.207870e-02
<MEAN> 39
 -9.232442e-01 1.181221e+01 -5.192347e+00 -2.067756e+00 -8.483329e+00 -8.365889e+00 -5.205106e+00 -3.362599e+00 -4.327246e+00 -4.520272e+00 -6.177741e+00 3.725127e-01 8.805005e-01 -2.765641e-01 -4.702965e-01 -7.301414e-01 -7.191444e-01 -7.750251e-01 -8.254259e-01 -8.054105e-01 -7.320336e-01 -6.705425e-01 -7.074669e-01 -5.520017e-01 -6.284714e-01 1.940553e-03 6.144501e-02 1.453986e-01 1.447921e-01 1.450094e-01 2.128399e-01 2.524954e-01 2.431027e-01 2.486845e-01 2.301768e-01 1.450181e-01 1.528285e-01 1.329447e-01 -1.534421e-03
<VARIANCE> 39
 1.421415e+01 2.323255e+01 1.456871e+01 1.345666e+01 1.497314e+01 2.478135e+01 2.422610e+01 2.641565e+01 1.671145e+01 2.813636e+01 2.622296e+01 3.605767e+01 6.031352e-03 9.459046e-02 2.034711e-01 3.104645e-01 4.364938e-01 4.762310e-01 4.439774e-01 6.125449e-01 4.511067e-01 4.766291e-01 4.720935e-01 7.123282e-01 6.952201e-01 3.754082e-05 1.144656e-02 3.558430e-02 3.682189e-02 5.317918e-02 6.720623e-02 8.248395e-02 1.052129e-01 1.015006e-01 8.147356e-02 1.008442e-01 8.484545e-02 6.682087e-02 4.467717e-06
<GCONST> 3.578445e+01
<STATE> 6
<NUMMIXES> 12
<MIXTURE> 1 6.591003e-02
<MEAN> 39
 -1.707911e+00 -3.218035e-01 -3.003493e+00 -2.021615e+00 -2.665286e+00 -3.011286e+00 -3.794030e+00 -3.586790e+00 -2.455187e+00 -2.769568e+00 -2.995433e+00 -1.507830e+00 9.646837e-01 3.673049e-01 3.870278e-01 4.961971e-01 5.418250e-01 5.729435e-01 5.377957e-01 5.820968e-01 6.400872e-01 4.957348e-01 3.618174e-01 3.407288e-01 3.476081e-01 -2.871512e-03 8.861796e-02 1.888140e-01 1.873796e-01 1.448902e-01 1.506101e-01 1.920436e-01 2.861122e-01 2.570346e-01 1.683354e-01 2.052836e-01 1.393740e-01 1.196617e-01 -8.405743e-04
<VARIANCE> 39
 3.328939e+00 2.154778e+00 9.266850e+00 6.686006e+00 8.893930e+00 4.241512e+00 8.097889e+00 6.984845e+00 8.255497e+00 8.761760e+00 1.526763e+01 1.179731e+01 1.179566e-03 8.328380e-02 1.487584e-01 2.986445e-01 3.194735e-01 5.496686e-01 4.093271e-01 6.409938e-01 5.840356e-01 4.063579e-01 4.468004e-01 5.979966e-01 4.481466e-01 3.754082e-05 1.602162e-02 4.036709e-02 7.525688e-02 6.901088e-02 1.160824e-01 8.740731e-02 9.202057e-02 1.001903e-01 9.065993e-02 7.662727e-02 8.794606e-02 9.007250e-02 3.730629e-06
<GCONST> 2.155665e+01
<MIXTURE> 2 6.172153e-02
<MEAN> 39
 -1.487220e+00 2.167129e-01 -3.097818e+00 -1.733727e+00 -1.794046e+00 -2.005031e+00 -2.388602e+00 -2.820034e+00 -2.465079e+00 -1.777880e+00 -1.948350e+00 -3.929917e-01 9.657952e-01 -1.252103e-01 -5.336057e-01 -6.001158e-01 -5.448211e-01 -7.469198e-01 -7.169346e-01 -6.486955e-01 -7.546215e-01 -7.167788e-01 -6.393786e-01 -4.472901e-01 -5.008261e-01 -1.527803e-03 5.577569e-02 1.218346e-01 1.815798e-01 9.347423e-02 1.238531e-01 8.983646e-02 1.593252e-01 2.527522e-01 9.875967e-02 9.381955e-02 5.653663e-02 7.648442e-02 -8.295340e-04
<VARIANCE> 39
 3.678534e+00 2.563248e+00 6.706599e+00 6.382584e+00 7.231997e+00 6.765990e+00 8.948906e+00 7.645336e+00 8.333381e+00 8.286831e+00 1.454601e+01 1.426679e+01 1.020374e-03 2.112080e-01 2.178711e-01 3.010264e-01 4.944869e-01 6.308414e-01 4.292235e-01 6.134092e-01 8.670424e-01 5.950770e-01 5.641265e-01 1.065596e+00 6.583554e-01 3.754082e-05 1.198263e-02 2.586362e-02 6.600780e-02 5.371325e-02 9.685275e-02 8.009140e-02 1.056990e-01 1.382192e-01 8.396582e-02 6.489531e-02 1.377250e-01 7.751581e-02 3.730629e-06
<GCONST> 2.486125e+01
<MIXTURE> 3 1.426010e-01
<MEAN> 39
 -1.756114e+00 2.179189e+00 -1.319081e+00 -9.320289e-01 -1.744523e+00 -1.299046e+00 -1.393266e+00 -8.096658e-01 -6.964211e-01 -1.976683e+00 -4.578766e-01 -1.863957e-02 9.742883e-01 7.768752e-02 6.258521e-04 5.344124e-02 6.265699e-03 3.052692e-02 4.134125e-02 3.425815e-02 6.883845e-02 8.019089e-02 9.356778e-03 -3.960478e-03 -6.741624e-03 -1.306950e-03 3.163769e-03 -8.867997e-03 1.989152e-02 -2.322648e-02 -1.237731e-02 -2.249263e-02 2.865332e-03 2.241722e-02 6.444705e-03 -5.197883e-03 -1.739974e-02 -1.845740e-03 -7.423547e-04
<VARIANCE> 39
 2.908736e+00 3.445668e+00 4.349675e+00 6.963673e+00 7.392334e+00 5.688995e+00 9.314398e+00 6.063358e+00 6.536803e+00 6.310861e+00 1.234983e+01 6.710470e+00 8.178990e-04 6.927244e-02 1.024605e-01 1.397663e-01 1.918892e-01 2.167656e-01 2.261364e-01 2.620138e-01 2.133167e-01 2.467990e-01 2.542681e-01 1.916423e-01 2.101071e-01 3.754082e-05 7.567907e-03 1.168535e-02 2.009456e-02 2.039778e-02 3.755886e-02 3.499043e-02 3.836966e-02 3.338008e-02 3.667847e-02 4.105245e-02 2.694981e-02 4.090309e-02 3.730629e-06
<GCONST> -6.789122e-01
<MIXTURE> 4 6.222639e-02
<MEAN> 39
 -2.443193e+00 1.407559e+01 1.284343e+00 -2.977335e+00 -6.558710e+00 -4.858982e+00 -9.181579e+00 -4.149035e-02 -8.998910e-01 -5.363933e+00 3.220026e+00 -5.558774e+00 8.870063e-01 5.422030e-02 -7.422497e-02 3.148170e-04 -5.337811e-02 1.412268e-01 -3.228135e-03 -1.445226e-01 -2.852023e-01 3.823676e-01 2.318539e-01 2.040442e-01 -4.638736e-02 1.819192e-03 6.400552e-02 -1.248742e-01 -8.528009e-02 -8.728678e-02 2.527567e-01 4.253216e-03 1.457895e-02 -1.439716e-01 3.843932e-02 1.144896e-01 -4.557644e-03 1.498570e-01 -2.116252e-03
<VARIANCE> 39
 6.906321e+00 2.681536e+01 1.227724e+01 1.874076e+01 2.100346e+01 2.839800e+01 4.477300e+01 3.350850e+01 2.996948e+01 2.526666e+01 2.794260e+01 2.014662e+01 5.082054e-03 1.529242e-01 5.149056e-01 7.234119e-01 1.309873e+00 9.994860e-01 5.948161e-01 1.050517e+00 1.148900e+00 1.246134e+00 1.089353e+00 1.327488e+00 6.544135e-01 8.412383e-05 4.218825e-02 6.299577e-02 1.099751e-01 1.411559e-01 1.888254e-01 2.048786e-01 2.710889e-01 2.436374e-01 1.700115e-01 1.506782e-01 1.440992e-01 1.298605e-01 1.321518e-05
<GCONST> 5.663408e+01
<MIXTURE> 5 1.003998e-01
<MEAN> 39
 -1.328945e-01 2.067414e+00 -3.493306e-01 3.265392e-01 1.445297e-02 -7.436122e-01 6.722851e-01 -3.683531e-01 -6.908393e-01 -7.793101e-01 -9.893134e-01 3.525384e-01 9.632403e-01 3.817263e-01 3.537374e-01 5.607380e-01 5.244610e-01 5.997650e-01 3.817225e-01 4.186450e-01 3.389850e-01 6.449494e-01 6.216229e-01 3.409025e-01 2.922746e-01 -3.777943e-03 -4.500457e-02 -1.197040e-01 -1.799165e-01 -1.688908e-01 -2.033726e-01 -1.281124e-01 -2.808561e-01 -2.451055e-01 -7.474583e-02 -5.334987e-02 -4.512699e-02 -8.384652e-02 -8.747737e-04
<VARIANCE> 39
 3.907073e+00 3.034620e+00 6.691545e+00 7.567856e+00 9.482895e+00 1.035738e+01 8.657287e+00 9.458771e+00 1.168084e+01 1.063738e+01 1.566152e+01 9.653596e+00 1.109797e-03 1.666318e-01 3.531908e-01 5.018614e-01 4.927297e-01 7.907603e-01 9.335371e-01 1.136451e+00 1.081465e+00 8.152297e-01 6.891295e-01 8.775510e-01 5.824621e-01 3.754082e-05 3.233914e-02 7.368263e-02 1.051498e-01 1.059754e-01 1.551767e-01 1.545316e-01 1.342868e-01 1.886230e-01 1.622062e-01 1.356165e-01 1.695258e-01 9.503279e-02 3.730629e-06
<GCONST> 3.595284e+01
<MIXTURE> 6 1.564549e-01
<MEAN> 39
 4.239177e-01 1.284419e+01 -5.157868e+00 -4.974357e-02 -5.554814e+00 -5.619449e+00 -2.832546e+00 -2.584623e+00 -2.772966e+00 -9.864185e-01 -2.716840e+00 3.724961e+00 8.882141e-01 4.609168e-02 3.740118e-02 1.957308e-01 -4.128509e-03 4.132361e-01 9.100374e-02 3.179175e-01 8.126421e-02 3.378165e-01 2.184006e-01 2.402205e-01 -1.366209e-01 -2.280987e-03 -3.142571e-02 -9.269781e-02 1.059706e-01 -1.936768e-01 6.687743e-02 -1.661271e-01 2.961945e-04 4.851934e-02 3.477395e-02 -6.694527e-02 1.196431e-02 -1.412708e-01 -1.596147e-03
<VARIANCE> 39
 1.602674e+01 3.349414e+01 1.504577e+01 1.703687e+01 1.713783e+01 2.632670e+01 2.030322e+01 2.070952e+01 2.071811e+01 3.366440e+01 4.157305e+01 5.771852e+01 5.722177e-03 2.030990e-01 2.085004e-01 3.911972e-01 5.027017e-01 6.286279e-01 9.656572e-01 8.414809e-01 7.417853e-01 8.752229e-01 9.956782e-01 8.772887e-01 9.300097e-01 3.754082e-05 3.402966e-02 6.122290e-02 9.876233e-02 1.447950e-01 1.547684e-01 1.827286e-01 2.168386e-01 1.707671e-01 1.693825e-01 1.622824e-01 1.539584e-01 1.534270e-01 4.572887e-06
<GCONST> 5.162197e+01
<MIXTURE> 7 5.313629e-02
<MEAN> 39
 -1.141872e+00 1.211914e+01 -3.242157e+00 3.643823e-01 -6.363482e+00 -5.257051e+00 9.467175e-01 2.694509e+00 5.951193e+00 5.847770e+00 5.017181e+00 6.266834e+00 9.035459e-01 -1.772216e-05 9.769504e-02 1.869580e-01 -1.003460e-01 3.098943e-01 6.245301e-02 1.558712e-01 2.029292e-01 4.328103e-03 2.803722e-01 2.966531e-01 -8.581702e-02 4.215202e-03 -1.493971e-01 -3.265587e-01 -3.005632e-01 -4.805872e-01 -1.239950e-01 -2.073607e-01 -3.367472e-01 -3.105815e-01 -1.203069e-01 -1.559200e-01 -5.602812e-02 -2.331038e-01 -2.534193e-03
<VARIANCE> 39
 1.791785e+01 2.763445e+01 2.267561e+01 2.188237e+01 2.593557e+01 2.758393e+01 2.831900e+01 4.217483e+01 6.597095e+01 9.045130e+01 9.285019e+01 1.106589e+02 9.184587e-03 6.695695e-01 6.765727e-01 9.946397e-01 8.658664e-01 1.594010e+00 1.522951e+00 1.224583e+00 1.178193e+00 1.564886e+00 1.296386e+00 2.200224e+00 1.966086e+00 7.812442e-05 1.057494e-01 1.745507e-01 2.033928e-01 1.651731e-01 2.603467e-01 4.008271e-01 2.529347e-01 3.612410e-01 3.148222e-01 4.892256e-01 4.265285e-01 4.624825e-01 1.965693e-05
<GCONST> 7.764614e+01
<MIXTURE> 8 4.402783e-02
<MEAN> 39
 2.781967e-02 1.394921e+01 -4.366975e+00 -2.853904e-01 -6.402464e+00 -8.564569e+00 -3.674258e+00 -1.028899e+00 -4.003777e+00 4.215230e-01 -6.102723e+00 2.472790e+00 9.033252e-01 -5.774198e-01 -7.141237e-01 -8.144130e-01 -1.097926e+00 -7.958611e-01 -1.219090e+00 -6.002790e-01 -1.053749e+00 -4.466245e-01 -7.857118e-01 -6.888447e-01 -9.061650e-01 -7.560018e-04 -7.318645e-02 -1.446367e-01 -2.435105e-02 -3.462380e-01 4.355993e-02 -1.185902e-01 2.980031e-02 -1.660931e-01 2.799004e-02 -2.224035e-01 1.099435e-01 -1.766925e-01 -2.324619e-03
<VARIANCE> 39
 8.355191e+00 2.576493e+01 9.226023e+00 1.426945e+01 9.562612e+00 1.695866e+01 2.542730e+01 2.927560e+01 3.011681e+01 1.161285e+01 2.235949e+01 2.101767e+01 4.186673e-03 1.944215e-01 2.169541e-01 2.910200e-01 5.092152e-01 4.366000e-01 6.825500e-01 4.653488e-01 6.550359e-01 5.419130e-01 7.969131e-01 7.926423e-01 1.065652e+00 4.949736e-05 4.062999e-02 5.105100e-02 6.070126e-02 7.585388e-02 8.818926e-02 1.309036e-01 1.412833e-01 7.718144e-02 1.693656e-01 1.408810e-01 1.536652e-01 1.345252e-01 6.015785e-06
<GCONST> 4.159396e+01
<MIXTURE> 9 4.672252e-02
<MEAN> 39
 -2.341929e+00 -8.425432e-01 -4.144525e+00 -4.168346e+00 -4.801344e+00 -4.763638e+00 -4.417343e+00 -4.851769e+00 -4.337535e+00 -4.924893e+00 -4.235958e+00 -2.767608e+00 9.684777e-01 4.111783e-02 -1.238284e-01 -1.248873e-01 -7.889315e-02 -8.724023e-02 -4.224838e-01 -6.843778e-02 -2.976647e-02 -2.704865e-01 -1.765521e-01 -1.220659e-01 -1.633689e-01 -2.866039e-03 1.741116e-01 3.074850e-01 4.006765e-01 4.118314e-01 5.049506e-01 3.712537e-01 3.957863e-01 5.166324e-01 4.193780e-01 4.594260e-01 3.375413e-01 3.497365e-01 -7.958644e-04
<VARIANCE> 39
 6.460557e+00 3.661407e+00 6.101515e+00 7.616905e+00 1.255083e+01 7.608633e+00 9.458149e+00 8.897940e+00 1.344542e+01 9.187207e+00 1.857367e+01 1.192266e+01 9.149292e-04 1.306827e-01 2.879459e-01 4.900765e-01 2.851819e-01 7.852467e-01 4.672154e-01 6.164207e-01 7.013905e-01 6.215164e-01 5.631382e-01 1.011997e+00 5.509088e-01 3.754082e-05 2.935902e-02 6.427436e-02 8.011932e-02 5.795333e-02 1.363728e-01 7.781958e-02 1.153523e-01 1.495809e-01 1.255199e-01 7.313193e-02 1.664757e-01 8.110548e-02 3.730629e-06
<GCONST> 3.023310e+01
<MIXTURE> 10 7.603029e-02
<MEAN> 39
 -4.861359e-01 1.538169e+01 4.289567e-01 -2.002058e+00 -2.087322e+00 -3.520606e+00 -8.518116e+00 -8.478001e-01 5.215685e-01 -4.065406e+00 5.879824e+00 -2.901706e+00 8.521657e-01 2.022330e-01 -3.450996e-02 1.527395e-02 7.202168e-02 -1.195502e-02 -1.981026e-01 2.885391e-02 2.405690e-01 5.064814e-02 1.443404e-01 -1.541982e-01 1.520913e-01 -6.328297e-03 2.758424e-02 -3.790911e-02 -3.798520e-02 1.330909e-01 -5.510094e-02 -3.207241e-02 -1.629059e-02 7.099249e-02 2.721097e-02 9.826931e-02 -7.200859e-02 -2.387683e-05 -2.048574e-03
<VARIANCE> 39
 8.068268e+00 3.376601e+01 1.491238e+01 1.048218e+01 1.091426e+01 1.364483e+01 1.516937e+01 1.194047e+01 1.100689e+01 1.655676e+01 1.023226e+01 1.261849e+01 3.977108e-03 3.684851e-01 4.538177e-01 3.350963e-01 4.146030e-01 4.577433e-01 4.973097e-01 4.727771e-01 3.061802e-01 3.697867e-01 4.298049e-01 3.712214e-01 3.121987e-01 3.754082e-05 7.289153e-02 9.618454e-02 6.416816e-02 7.393233e-02 7.791941e-02 9.261501e-02 7.117452e-02 6.538974e-02 7.672033e-02 5.916053e-02 8.704628e-02 6.429829e-02 4.640332e-06
<GCONST> 3.224479e+01
<MIXTURE> 11 6.509750e-02
<MEAN> 39
 -1.902754e+00 1.852390e+01 -4.923256e-02 -2.942400e+00 -6.398221e+00 -4.233598e+00 -1.014267e+01 1.149859e+00 -1.551391e+00 -5.180811e+00 5.597711e+00 -4.477658e+00 8.606744e-01 -5.643912e-02 -2.778519e-01 2.070814e-01 -5.195875e-01 3.474133e-01 -3.971379e-01 4.035337e-01 -2.377711e-01 5.826887e-01 6.352666e-02 1.822136e-01 4.348245e-02 2.107592e-03 -5.618012e-02 -1.815706e-01 1.332456e-01 -2.736486e-01 1.651796e-01 -9.457467e-02 4.408431e-02 -5.646459e-02 1.050741e-01 5.100522e-02 -1.226405e-01 1.026829e-01 -1.375884e-03
<VARIANCE> 39
 6.592100e+00 2.837885e+01 1.042896e+01 1.425076e+01 1.462014e+01 2.456439e+01 1.543172e+01 1.910067e+01 2.296142e+01 3.329294e+01 1.451804e+01 9.886364e+00 4.797959e-03 1.037905e-01 1.378007e-01 2.490612e-01 2.176546e-01 2.428671e-01 3.081353e-01 3.482254e-01 3.296858e-01 4.466336e-01 3.589900e-01 3.688206e-01 5.181292e-01 3.754082e-05 3.439336e-02 2.821565e-02 4.592233e-02 4.702783e-02 6.340120e-02 1.018054e-01 9.556057e-02 4.712642e-02 9.237818e-02 1.071707e-01 7.855552e-02 9.360454e-02 5.248250e-06
<GCONST> 2.894448e+01
<MIXTURE> 12 1.256698e-01
<MEAN> 39
 -9.247094e-01 2.188349e+00 -2.751774e-01 -1.190601e-01 2.224232e-01 1.414615e-02 -3.266084e-01 -3.923799e-01 1.389576e-01 -8.007763e-03 -2.742525e-01 7.774814e-01 9.686848e-01 -5.113518e-02 -2.480155e-01 -3.811800e-01 -2.724353e-01 -3.284186e-01 -3.174868e-01 -2.915930e-01 -4.294820e-01 -1.973675e-01 -3.022012e-01 -1.677384e-01 -2.430425e-01 -1.497947e-03 -5.568819e-02 -1.358120e-01 -1.621628e-01 -1.521162e-01 -2.235072e-01 -2.164403e-01 -1.570057e-01 -1.508214e-01 -2.047149e-01 -1.581567e-01 -1.078447e-01 -1.520644e-01 -8.142249e-04
<VARIANCE> 39
 3.358699e+00 3.413256e+00 5.455558e+00 5.535230e+00 5.760526e+00 7.364173e+00 1.102663e+01 7.501152e+00 6.389778e+00 9.108912e+00 1.472504e+01 7.858853e+00 8.178990e-04 1.223095e-01 2.539260e-01 3.452796e-01 5.997332e-01 5.285434e-01 5.440311e-01 7.883338e-01 8.366358e-01 6.919458e-01 5.129129e-01 9.549989e-01 5.314094e-01 3.754082e-05 1.930336e-02 3.884880e-02 4.673997e-02 7.022619e-02 9.031966e-02 9.194528e-02 9.931698e-02 1.039162e-01 8.776733e-02 9.413258e-02 1.375434e-01 8.176544e-02 3.730629e-06
<GCONST> 2.471810e+01
<STATE> 7
<NUMMIXES> 12
<MIXTURE> 1 4.110061e-02
<MEAN> 39
 -3.990139e+00 9.736403e+00 -3.618951e+00 -6.468637e+00 -7.053680e+00 -5.744220e+00 6.761438e+00 6.732049e+00 2.071715e+01 1.779808e+01 8.934220e+00 3.653522e+00 9.733340e-01 2.667658e-01 2.493837e-01 1.642376e-01 1.058644e-01 1.630191e-01 3.708539e-02 1.274089e-01 4.114291e-01 2.353462e-01 -1.088319e-01 1.311369e-02 -7.847755e-01 1.151622e-03 -3.638852e-02 1.182067e-01 1.320824e-01 3.262391e-03 1.552584e-01 6.349339e-02 9.172553e-02 -6.017573e-02 -8.771428e-02 1.286044e-01 1.316919e-01 3.769610e-02 -1.542928e-03
<VARIANCE> 39
 2.780929e+00 1.530640e+01 1.162082e+01 8.566691e+00 6.281568e+00 3.327566e+00 3.288890e+00 2.286462e+01 8.004494e+00 6.518734e+00 8.517348e+00 6.065090e+01 8.178990e-04 3.122904e-01 4.252909e-01 6.596067e-01 6.215075e-01 5.786823e-01 1.686402e-01 4.258752e-01 7.246578e-01 6.489123e-01 7.200665e-01 2.446749e-01 6.827188e-01 3.754082e-05 6.105995e-02 3.666364e-02 7.572281e-02 1.010597e-01 6.966735e-02 5.841284e-02 4.998342e-02 1.204930e-01 8.689345e-02 1.514999e-01 3.313804e-02 9.013970e-02 3.730629e-06
<GCONST> 2.709476e+01
<MIXTURE> 2 6.223013e-02
<MEAN> 39
 2.472550e+00 9.141647e+00 -5.879374e+00 2.494606e+00 -1.014623e-01 -3.418718e+00 -5.183949e+00 -2.626976e+00 2.318470e+00 4.453277e+00 -9.854759e-01 -2.369860e+00 8.800697e-01 4.244425e-01 -2.171576e-01 -4.634724e-01 4.787663e-01 2.749348e-01 -6.160287e-01 -5.755126e-01 5.801973e-01 8.257844e-01 3.056787e-01 -5.145755e-01 3.399429e-02 -7.066241e-03 -4.090225e-02 -9.025460e-02 2.919846e-01 -1.995392e-01 -6.453248e-02 -2.231624e-04 4.996722e-02 1.810312e-01 -3.277659e-01 -4.086197e-01 2.988709e-01 3.045642e-01 -2.391155e-03
<VARIANCE> 39
 9.621358e+00 3.841131e+01 1.702106e+01 1.463412e+01 2.457074e+01 1.796589e+01 3.128572e+01 2.083166e+01 1.812807e+01 3.394059e+01 2.802331e+01 2.602337e+01 3.063636e-03 1.953098e-01 5.368229e-01 1.165642e+00 6.408383e-01 8.972998e-01 1.172844e+00 1.594075e+00 1.377973e+00 1.534628e+00 1.596995e+00 1.558343e+00 1.556815e+00 4.259105e-05 2.838351e-02 1.122615e-01 1.362995e-01 1.150465e-01 1.498268e-01 1.791769e-01 1.468417e-01 1.993077e-01 1.760632e-01 3.147345e-01 1.056205e-01 2.282035e-01 3.730629e-06
<GCONST> 5.674233e+01
<MIXTURE> 3 4.719335e-02
<MEAN> 39
 1.862133e+00 1.350726e+01 -5.307003e+00 -4.240861e-01 -6.963820e+00 -5.267368e+00 -4.987074e+00 -3.791618e+00 1.467677e+00 -3.148709e+00 -2.543682e+00 -7.384025e+00 7.487761e-01 2.813433e-01 -6.090628e-03 -3.787420e-01 5.926885e-02 -1.632427e-01 -9.958383e-02 -2.608187e-01 -1.028125e+00 4.673763e-01 3.610216e-01 -3.655638e-02 -2.297189e-01 -3.636740e-03 2.123799e-01 -1.001392e-01 2.421576e-01 -9.227895e-02 3.894859e-01 1.251574e-01 7.702105e-02 1.225785e-01 -4.812054e-02 8.963031e-02 2.271588e-01 7.067899e-01 -1.785213e-04
<VARIANCE> 39
 1.590882e+01 5.520024e+01 4.017564e+01 2.597138e+01 2.994104e+01 2.938652e+01 3.923754e+01 2.534846e+01 2.643966e+01 3.965857e+01 2.458023e+01 1.867879e+01 1.607108e-02 2.062507e-01 3.577508e-01 9.751387e-01 1.094126e+00 1.717348e+00 2.278165e+00 5.982472e-01 1.244459e+00 7.270786e-01 2.073102e+00 7.631202e-01 9.979659e-01 5.987259e-05 7.133758e-02 5.203829e-02 2.870227e-01 2.106000e-01 2.936406e-01 3.503557e-01 3.609931e-01 2.981446e-01 3.075796e-01 4.278192e-01 2.272982e-01 1.516723e-01 1.226465e-05
<GCONST> 6.737341e+01
<MIXTURE> 4 5.524110e-02
<MEAN> 39
 -1.032771e+00 1.497996e+01 -9.683590e-01 -2.287887e+00 -4.633366e+00 -5.433586e+00 -1.119511e+01 -9.024235e-02 1.236304e+00 -4.758832e+00 5.930364e+00 -4.329664e+00 8.890592e-01 -2.075618e-01 -3.632760e-01 1.683266e-01 -9.528458e-01 7.289346e-01 -4.990906e-01 2.673073e-01 -5.944860e-01 4.266701e-01 8.166108e-02 -1.175368e-01 3.961616e-01 -1.294399e-03 -2.640915e-02 -2.636712e-01 3.310189e-01 -4.444042e-01 2.856736e-01 5.444980e-02 3.013236e-01 1.193530e-02 -5.148644e-02 1.895823e-01 -3.482633e-01 2.616105e-01 -3.253776e-03
<VARIANCE> 39
 4.053432e+00 2.190595e+01 1.339520e+01 1.333030e+01 1.945822e+01 1.633074e+01 1.342935e+01 1.221392e+01 3.288465e+01 1.523067e+01 1.408319e+01 1.208501e+01 4.252737e-03 2.327586e-01 4.793323e-01 6.593941e-01 7.847016e-01 6.600657e-01 1.321278e+00 8.621256e-01 7.746049e-01 7.433370e-01 4.033926e-01 5.118216e-01 6.486338e-01 1.202207e-04 4.001987e-02 6.907853e-02 7.951966e-02 1.547553e-01 1.144730e-01 2.339588e-01 6.286359e-02 8.709098e-02 1.037114e-01 7.325159e-02 7.626754e-02 5.114824e-02 9.989147e-06
<GCONST> 4.232030e+01
<MIXTURE> 5 2.270695e-01
<MEAN> 39
 -9.022842e-01 1.190151e+01 5.706474e-02 -9.688292e-01 -3.709749e+00 -5.608030e+00 -5.982820e+00 -5.676584e-01 -1.468296e+00 -1.741556e+00 1.007284e+00 -6.221696e-01 8.814141e-01 1.977755e-01 -9.534153e-02 6.084975e-02 9.092642e-02 1.220370e-01 2.482201e-02 -4.310657e-03 8.170418e-02 2.899131e-02 2.391675e-01 9.458371e-02 -1.994689e-01 -1.165987e-02 1.564782e-01 -9.625918e-02 -1.779432e-02 -5.215246e-02 8.625392e-02 1.449089e-01 1.218487e-01 1.251101e-03 -3.561357e-02 3.852505e-02 -7.353462e-02 -1.054090e-01 -4.506938e-03
<VARIANCE> 39
 1.223456e+01 3.854195e+01 1.024202e+01 1.630765e+01 1.217415e+01 2.492601e+01 3.341816e+01 1.683678e+01 2.469235e+01 3.448170e+01 2.545747e+01 2.135367e+01 4.263564e-03 2.199025e-01 2.785030e-01 5.651721e-01 6.103807e-01 5.733818e-01 5.996846e-01 9.266292e-01 8.673415e-01 1.063633e+00 1.111038e+00 7.857842e-01 8.498765e-01 4.875908e-05 4.030480e-02 4.608570e-02 1.055810e-01 7.526672e-02 1.030132e-01 1.045395e-01 2.153820e-01 1.358831e-01 1.484819e-01 2.136140e-01 1.461429e-01 1.403774e-01 9.099685e-06
<GCONST> 4.914743e+01
<MIXTURE> 6 1.115637e-01
<MEAN> 39
 -7.686236e-01 1.507286e+01 -5.601864e+00 9.613392e-02 -5.625475e+00 -7.062488e+00 -1.736683e+00 -1.234276e+00 -1.630740e+00 -9.252734e-01 -4.845489e+00 1.944933e+00 8.806442e-01 -4.137009e-01 -4.536775e-01 1.575617e-01 -1.158213e+00 6.967394e-01 -7.906233e-01 8.998722e-01 -2.407182e-01 6.488577e-01 -3.814590e-01 4.825401e-01 -8.237203e-01 -1.534829e-03 2.090918e-02 -4.160496e-01 3.089195e-01 -5.765292e-01 2.999882e-01 -1.921701e-01 -4.424730e-02 -4.153098e-02 -2.015243e-01 -6.268498e-02 4.018474e-02 -2.187431e-01 -3.096969e-03
<VARIANCE> 39
 1.366433e+01 2.422226e+01 1.245225e+01 2.277301e+01 9.309065e+00 1.715112e+01 1.400775e+01 1.934112e+01 2.120933e+01 2.436018e+01 2.066366e+01 4.233969e+01 4.615089e-03 2.652985e-01 4.839709e-01 5.138177e-01 6.325046e-01 9.615019e-01 1.034126e+00 1.444747e+00 1.065924e+00 1.153451e+00 8.859281e-01 1.118605e+00 8.432586e-01 3.754082e-05 4.697274e-02 8.518837e-02 1.563318e-01 1.704088e-01 2.107479e-01 1.968998e-01 2.749715e-01 2.223924e-01 2.672857e-01 1.377343e-01 2.023602e-01 1.945417e-01 8.253313e-06
<GCONST> 5.510285e+01
<MIXTURE> 7 4.877975e-02
<MEAN> 39
 -9.741243e-01 1.123580e+01 -5.011127e+00 -3.456880e+00 -4.883041e+00 -6.618661e+00 -8.377386e-01 -2.466859e+00 3.946291e-01 3.471913e+00 4.578078e+00 8.330032e+00 9.144543e-01 -2.177339e-01 -2.733061e-01 4.078432e-01 -7.738897e-01 2.490909e-01 -4.867432e-01 -4.723605e-01 1.254169e-02 -3.986065e-01 3.933031e-02 -9.571452e-02 -6.129820e-01 -2.177722e-03 1.616526e-01 -2.791719e-01 1.523187e-01 -1.089194e-01 1.113027e-01 -4.917284e-02 -3.962787e-01 -7.090399e-02 -1.458242e-01 -1.859571e-01 -2.980829e-01 -4.959746e-01 -6.886305e-03
<VARIANCE> 39
 1.078958e+01 2.743306e+01 3.209522e+01 2.071607e+01 3.990154e+01 3.822478e+01 1.440985e+01 1.767936e+01 4.140048e+01 4.678528e+01 5.949430e+01 1.427716e+02 4.152101e-03 7.343779e-01 3.874846e-01 8.969358e-01 8.365573e-01 1.230834e+00 1.486017e+00 1.061177e+00 1.652083e+00 1.533846e+00 2.149337e+00 1.539840e+00 2.546826e+00 6.772072e-05 6.069049e-02 5.720763e-02 1.784344e-01 1.794507e-01 3.747462e-01 2.383456e-01 1.417300e-01 3.457331e-01 2.654206e-01 7.085451e-01 3.834331e-01 5.883664e-01 2.178290e-05
<GCONST> 7.201947e+01
<MIXTURE> 8 5.205709e-02
<MEAN> 39
 -1.611461e+00 1.363504e+01 -6.237094e+00 -2.793635e-01 -5.942023e+00 -3.294555e+00 7.008799e-01 -2.205099e+00 2.683253e+00 4.554744e+00 8.223103e+00 1.466814e+01 9.274550e-01 -8.270109e-01 -8.758186e-01 -6.736298e-01 -1.327070e+00 -5.418200e-01 -1.225583e+00 -3.465989e-01 -4.586996e-01 -2.100888e-01 3.714150e-01 5.108367e-01 2.671915e-01 2.094274e-03 -1.315105e-01 -3.837267e-01 -2.665887e-02 -5.390416e-01 -4.924176e-02 -5.303036e-01 -2.190102e-01 3.945545e-02 -1.017698e-01 -7.471155e-02 -3.356532e-01 -5.110435e-01 -3.287641e-03
<VARIANCE> 39
 2.575471e+01 2.146681e+01 1.929522e+01 1.225639e+01 2.609244e+01 1.651499e+01 7.544847e+00 2.368126e+01 2.883770e+01 3.137290e+01 6.226506e+01 4.253951e+01 2.123663e-03 1.509871e-01 5.401914e-01 3.317082e-01 5.509363e-01 1.504168e+00 1.052718e+00 1.161286e+00 5.802024e-01 1.269564e+00 1.194780e+00 2.281443e+00 1.134255e+00 9.458468e-05 8.112550e-02 9.315909e-02 1.721175e-01 1.442451e-01 2.590334e-01 1.446451e-01 2.025213e-01 3.412801e-01 1.500041e-01 2.500810e-01 3.261341e-01 4.542702e-01 6.680348e-06
<GCONST> 5.955853e+01
<MIXTURE> 9 8.653401e-02
<MEAN> 39
 2.971772e+00 1.252391e+01 -1.546096e+00 4.796457e-01 -1.937673e+00 -3.034670e+00 -3.773510e+00 1.140170e+00 -1.146798e+00 2.644587e+00 1.012766e+00 -9.705963e-01 8.297757e-01 6.421977e-01 -4.534118e-01 -1.086216e+00 1.842430e-01 3.592606e-01 -4.084032e-01 -1.652762e-01 -2.471178e-01 2.124695e-01 1.925912e-01 -6.122714e-01 -1.983491e-01 -4.512005e-04 1.612062e-03 7.030851e-02 -3.041092e-01 1.473093e-02 -6.596851e-02 -3.240443e-01 3.114508e-02 -1.184847e-01 1.106586e-01 -2.889857e-01 -2.815016e-01 -3.928849e-02 1.017209e-03
<VARIANCE> 39
 8.469090e+00 2.594286e+01 9.995229e+00 8.203984e+00 1.748726e+01 2.913532e+01 2.038673e+01 2.167936e+01 1.097722e+01 4.338538e+01 5.447054e+01 1.042347e+01 2.888886e-03 4.013251e-01 9.282733e-01 9.734405e-01 1.111679e+00 1.266378e+00 2.394611e+00 1.745988e+00 1.761467e+00 1.448367e+00 2.226511e+00 1.863256e+00 1.725155e+00 6.491288e-05 4.139437e-02 1.224311e-01 1.362031e-01 1.442859e-01 1.692931e-01 2.453793e-01 2.664285e-01 3.778262e-01 1.665087e-01 2.888855e-01 2.690046e-01 2.217833e-01 4.045614e-06
<GCONST> 6.151933e+01
<MIXTURE> 10 8.133022e-02
<MEAN> 39
 -3.972595e+00 1.717684e+01 1.200163e+00 -4.217775e+00 -4.121186e+00 -5.606209e+00 -8.374130e+00 -5.246378e+00 3.038278e+00 -8.391063e+00 7.247363e+00 -3.827536e+00 8.947272e-01 -2.169553e-01 -5.984306e-01 1.648076e-01 -1.133406e+00 4.565890e-01 -3.945108e-01 4.539648e-01 1.333805e-01 2.293185e-02 7.464057e-01 -6.091722e-01 6.771937e-01 6.072894e-03 8.042921e-02 -3.006942e-01 1.757293e-01 -3.382476e-01 4.057099e-02 8.464640e-02 8.851866e-02 3.806685e-01 -8.263428e-02 1.840992e-01 -3.708388e-01 2.063983e-01 -2.151086e-03
<VARIANCE> 39
 8.994602e+00 2.278425e+01 1.177355e+01 8.639505e+00 1.359711e+01 1.376793e+01 1.833924e+01 2.011924e+01 2.477294e+01 3.608130e+01 1.498786e+01 9.041048e+00 3.395611e-03 1.176023e-01 1.946242e-01 2.431730e-01 3.054400e-01 4.054216e-01 3.308761e-01 3.540124e-01 5.497836e-01 4.746609e-01 7.148591e-01 7.410737e-01 5.696804e-01 3.967861e-05 1.719885e-02 5.991969e-02 1.086963e-01 1.027596e-01 4.964866e-02 4.355048e-02 1.303367e-01 1.078892e-01 8.436874e-02 1.100839e-01 6.712469e-02 6.913354e-02 6.153550e-06
<GCONST> 3.286023e+01
<MIXTURE> 11 6.695061e-02
<MEAN> 39
 -1.287329e-01 1.820723e+01 5.763968e-01 -4.723562e+00 -8.274821e+00 -2.474863e+00 -1.276188e+01 4.215422e+00 -6.887003e-01 -4.598185e+00 4.252928e+00 -7.149792e+00 8.469210e-01 -2.709788e-01 -2.756914e-01 3.042975e-01 -1.122065e+00 8.109449e-01 -5.989737e-01 1.980974e-01 -2.199576e-02 1.447061e+00 -3.652053e-01 5.923489e-02 1.846462e-01 7.730671e-04 -5.697411e-02 -2.405180e-01 2.306640e-01 -1.369343e-01 3.828199e-01 -2.517533e-01 2.325586e-01 -1.370469e-01 2.274413e-01 2.552479e-01 -1.586281e-01 2.661092e-01 -2.491776e-03
<VARIANCE> 39
 1.751937e+01 1.365067e+01 2.279122e+01 2.965158e+01 1.291624e+01 3.178652e+01 2.034235e+01 1.716132e+01 2.792413e+01 1.836320e+01 1.046629e+01 2.032344e+01 4.761866e-03 2.665200e-01 3.393985e-01 3.453623e-01 7.829773e-01 5.703046e-01 8.424616e-01 1.193452e+00 1.135462e+00 1.310241e+00 8.156889e-01 1.186134e+00 4.506860e-01 6.741750e-05 6.439198e-02 1.098505e-01 1.231317e-01 1.629112e-01 1.428324e-01 2.202184e-01 2.747491e-01 2.270135e-01 2.690623e-01 1.590110e-01 1.496417e-01 1.535103e-01 2.248878e-05
<GCONST> 5.476962e+01
<MIXTURE> 12 1.199495e-01
<MEAN> 39
 -7.767044e-01 1.289962e+01 -7.334980e+00 -2.814969e+00 -9.536498e+00 -1.151595e+01 -6.332348e+00 -4.750515e+00 -5.457320e+00 -2.990034e+00 -8.446634e+00 1.921591e-01 8.811215e-01 -4.874422e-01 -4.131692e-01 -3.620919e-01 -9.703450e-01 -3.457284e-01 -6.814761e-01 -5.487642e-02 -7.063801e-01 -1.356682e-01 -8.085935e-01 8.860625e-02 -7.079908e-01 -3.626029e-03 1.605286e-01 1.072570e-01 4.717555e-01 1.759425e-02 5.869153e-01 3.443976e-01 5.204363e-01 4.622404e-01 3.741036e-01 2.023346e-01 5.567338e-01 1.180205e-01 -3.477598e-03
<VARIANCE> 39
 7.567652e+00 3.193469e+01 1.199396e+01 1.700031e+01 1.248761e+01 2.025682e+01 1.924668e+01 3.002625e+01 2.080472e+01 1.927050e+01 2.432303e+01 3.151889e+01 4.849175e-03 3.334343e-01 3.564825e-01 5.680846e-01 1.004950e+00 6.252971e-01 1.412594e+00 1.060467e+00 1.180904e+00 1.027211e+00 1.212735e+00 9.627378e-01 1.008033e+00 5.768945e-05 5.871087e-02 6.046946e-02 1.222521e-01 1.928828e-01 1.380702e-01 1.736364e-01 1.520312e-01 1.656763e-01 1.546102e-01 2.577759e-01 1.865009e-01 2.091409e-01 7.053116e-06
<GCONST> 5.439283e+01
<STATE> 8
<NUMMIXES> 12
<MIXTURE> 1 7.479868e-03
<MEAN> 39
 -8.252267e+00 3.486197e+00 -9.200551e+00 -1.221320e+00 -5.677510e+00 -6.701372e+00 -5.461538e+00 -7.122191e+00 5.642177e+00 7.112651e+00 1.611876e+01 2.106154e+01 9.612956e-01 6.284042e-01 -1.642708e-01 -1.345198e-01 2.751302e-01 9.353291e-01 4.305147e-01 -4.155672e-01 -7.318624e-01 2.218342e+00 2.339848e+00 3.907516e-01 -1.160634e+00 2.024655e-03 4.039707e-01 4.731233e-01 5.854949e-01 3.609879e-01 8.168244e-01 5.027559e-01 3.908272e-01 3.716028e-01 2.267654e-01 -3.918759e-02 -3.035707e-01 -1.307128e-01 5.498060e-04
<VARIANCE> 39
 2.372104e+00 2.747016e+00 1.557576e+00 5.524562e+00 4.679427e+00 4.179566e+00 1.743472e+01 1.091821e+01 1.683875e+01 1.010647e+01 1.265213e+01 1.446678e+01 1.543204e-03 1.256589e+00 6.069947e-01 5.453280e-01 9.922792e-01 1.311197e+00 1.446279e+00 4.934008e-01 8.665751e-01 4.152485e-01 8.036174e-01 7.170525e-01 1.979743e+00 3.754082e-05 3.242315e-02 2.567364e-02 4.969199e-02 5.554515e-02 7.372811e-02 1.491960e-01 2.322511e-02 2.578705e-01 1.570077e-01 1.928702e-01 3.275251e-02 2.916530e-01 3.730629e-06
<GCONST> 3.250845e+01
<MIXTURE> 2 5.966311e-02
<MEAN> 39
 -4.168798e-02 1.320870e+01 -5.545814e+00 -2.701389e+00 -8.901118e+00 -7.919551e+00 -4.288436e+00 -5.265838e+00 -1.207921e+00 -5.179733e+00 -5.615993e+00 -2.379698e+00 7.822220e-01 8.424511e-01 1.910510e-01 2.878812e-01 4.670655e-01 1.044428e+00 1.032397e+00 5.640634e-01 5.328469e-01 8.387606e-01 7.987078e-01 1.599627e+00 1.059812e+00 -8.413527e-03 3.802863e-01 -4.359884e-02 1.441847e-01 2.584640e-01 4.461019e-01 2.868076e-01 1.078969e-01 4.065144e-01 2.758216e-01 3.703359e-01 4.329451e-01 2.958878e-01 -5.453849e-04
<VARIANCE> 39
 8.888080e+00 3.186972e+01 1.926993e+01 1.996655e+01 1.368731e+01 4.193763e+01 3.553112e+01 1.675752e+01 1.783362e+01 3.931511e+01 4.822560e+01 3.370675e+01 1.340701e-02 7.686537e-01 2.240463e-01 8.317162e-01 8.678725e-01 1.340696e+00 1.668655e+00 9.962156e-01 1.052927e+00 1.056940e+00 2.621332e+00 2.902699e+00 8.194674e-01 1.562671e-04 8.116085e-02 8.518485e-02 6.918544e-02 1.087531e-01 1.494675e-01 2.792856e-01 2.380630e-01 1.557813e-01 1.639716e-01 4.106466e-01 5.295141e-01 3.003591e-01 1.983281e-05
<GCONST> 6.584262e+01
<MIXTURE> 3 2.450616e-02
<MEAN> 39
 -3.045936e+00 1.760545e+01 -6.830487e+00 -5.223284e+00 -8.951135e+00 -9.830460e+00 -5.731776e+00 -1.961911e+00 -4.719503e+00 -4.451815e+00 -4.864198e+00 2.932307e+00 8.334990e-01 -8.417975e-01 -3.293594e-01 -3.439764e-01 -2.124933e+00 1.169786e+00 4.057947e-01 2.171298e+00 1.534358e+00 1.797001e+00 6.015698e-01 1.696886e+00 -8.929896e-01 -1.643423e-02 2.306683e-01 -1.966334e-01 1.997606e-01 -3.326743e-01 6.526967e-01 2.554128e-01 1.107693e+00 8.057833e-01 8.261736e-01 4.279582e-01 1.182856e-01 -5.416057e-01 -3.936371e-03
<VARIANCE> 39
 8.728500e+00 1.815379e+01 7.279420e+00 3.258859e+01 5.292560e+00 1.474636e+01 1.031215e+01 3.421716e+01 3.413684e+01 8.654958e+00 1.416451e+01 1.716706e+01 3.256717e-03 9.568828e-01 1.315164e+00 6.797811e-01 7.770528e-01 1.271562e+00 4.383750e-01 1.612966e+00 2.224067e+00 1.429539e+00 2.996463e+00 1.676331e+00 1.798968e+00 3.777039e-05 1.524411e-01 1.580364e-01 1.195966e-01 1.359735e-01 9.517371e-02 1.770621e-01 1.686281e-01 5.120243e-01 3.301605e-01 3.541314e-01 1.369744e-01 1.248913e-01 1.077075e-05
<GCONST> 5.851873e+01
<MIXTURE> 4 1.107840e-01
<MEAN> 39
 -1.546787e+00 1.584434e+01 2.340763e+00 -2.663924e+00 -4.780884e+00 -4.390445e+00 -1.074354e+01 1.401150e+00 -2.518841e-01 -4.557969e+00 4.614525e+00 -5.030242e+00 8.232551e-01 3.906605e-01 -3.039291e-01 2.771798e-01 -3.805578e-01 5.991615e-01 9.595595e-02 5.337272e-01 5.418782e-02 4.335331e-01 1.612017e-01 -2.438140e-01 -9.249602e-02 -1.781175e-02 2.314212e-01 -2.034389e-01 8.175658e-03 2.303087e-01 2.550491e-01 2.503567e-01 4.038099e-01 -8.980466e-02 -1.309191e-01 1.897092e-01 -2.444919e-01 8.617466e-02 -6.349552e-03
<VARIANCE> 39
 7.861370e+00 1.724606e+01 9.884248e+00 2.237272e+01 1.735178e+01 2.559170e+01 1.846307e+01 1.170990e+01 3.155653e+01 2.228580e+01 9.594208e+00 1.702939e+01 5.254762e-03 6.269859e-01 5.435408e-01 7.976591e-01 5.784004e-01 9.061011e-01 1.066396e+00 9.112701e-01 1.505102e+00 1.920249e+00 2.074083e+00 1.085260e+00 2.046941e+00 1.378485e-04 5.428571e-02 6.090583e-02 1.147252e-01 1.392300e-01 1.561181e-01 1.469123e-01 2.838415e-01 1.348039e-01 2.797160e-01 1.827231e-01 1.280420e-01 2.006828e-01 2.266476e-05
<GCONST> 5.736630e+01
<MIXTURE> 5 1.424367e-01
<MEAN> 39
 -1.898274e+00 1.033157e+01 -4.412913e+00 -4.098609e+00 -6.486692e+00 -8.815561e+00 -5.134261e+00 -2.633573e+00 -4.671394e+00 -1.283342e+00 -5.372884e+00 -2.281444e+00 9.002572e-01 1.003024e-01 -3.971696e-01 2.914875e-01 -6.559483e-01 8.101872e-01 -1.134508e-01 5.560640e-02 -3.107021e-02 2.877760e-01 -2.511841e-01 7.338965e-01 -7.435354e-01 -1.160407e-02 2.975521e-01 9.960915e-03 4.735313e-01 1.988845e-01 4.779672e-01 4.872633e-01 2.273740e-01 2.022890e-01 1.150125e-01 9.276181e-03 3.884644e-01 1.789224e-01 -7.986127e-03
<VARIANCE> 39
 1.294824e+01 2.565378e+01 9.196529e+00 1.537954e+01 1.364139e+01 2.143036e+01 2.055384e+01 2.743493e+01 1.812434e+01 2.056830e+01 2.030489e+01 4.525101e+01 3.335307e-03 2.917080e-01 5.422028e-01 9.326069e-01 1.045241e+00 9.465842e-01 1.245198e+00 1.803183e+00 1.256606e+00 2.094948e+00 1.401082e+00 1.731914e+00 1.633107e+00 1.530591e-04 7.192151e-02 1.042109e-01 1.487706e-01 1.226104e-01 2.071268e-01 2.004701e-01 2.871267e-01 2.978971e-01 3.013192e-01 2.469381e-01 2.036299e-01 2.995353e-01 2.187294e-05
<GCONST> 6.326951e+01
<MIXTURE> 6 1.182634e-01
<MEAN> 39
 7.025672e+00 1.429854e+01 -8.214979e+00 1.076530e+00 -2.427222e+00 -6.779674e+00 -4.436853e+00 -3.447053e+00 3.455977e+00 -8.378410e-01 -5.078230e+00 5.002299e-01 7.885363e-01 4.982017e-01 -5.697782e-01 6.127909e-01 -2.916222e-02 2.403767e-01 -3.660412e-01 -1.895127e-01 1.416640e-01 -1.924622e-01 -2.936050e-01 2.229484e-01 5.256511e-01 -6.388638e-03 -1.904367e-01 -1.002885e-01 4.391837e-01 -1.021528e-01 -2.836769e-01 -4.401892e-02 -4.133493e-02 3.885217e-02 -4.194843e-01 -2.182827e-01 2.256452e-01 -5.473819e-02 -3.595927e-03
<VARIANCE> 39
 8.827978e+00 2.467942e+01 2.633542e+01 3.283961e+01 2.705224e+01 2.935425e+01 2.166393e+01 5.028521e+01 2.555398e+01 4.548521e+01 4.695242e+01 3.379836e+01 8.505636e-03 5.213589e-01 6.480139e-01 1.222032e+00 1.862297e+00 1.768516e+00 2.317900e+00 1.983805e+00 2.393873e+00 2.654988e+00 2.681492e+00 2.261412e+00 1.478101e+00 1.313725e-04 5.088043e-02 8.556978e-02 1.616516e-01 2.886558e-01 2.301459e-01 5.608077e-01 2.111494e-01 3.820868e-01 3.206764e-01 3.469077e-01 2.759210e-01 2.230798e-01 1.032720e-05
<GCONST> 7.456202e+01
<MIXTURE> 7 1.666455e-01
<MEAN> 39
 2.006218e+00 8.155976e+00 -1.394354e+00 -1.935489e-02 -2.636243e+00 -3.837147e+00 -1.196320e+00 -6.181949e-01 -9.266045e-01 -1.017395e+00 -7.680403e-01 2.380355e+00 8.722901e-01 5.151631e-01 -1.823407e-01 3.138846e-01 -4.363642e-02 2.320920e-01 -9.259031e-02 -1.762868e-01 -8.542964e-02 3.087062e-02 3.359466e-01 1.377119e-01 -1.160714e-01 -1.486690e-02 9.451031e-03 -1.411906e-01 9.829278e-02 -5.182581e-03 4.779951e-02 3.336518e-02 -1.612839e-01 -1.698704e-01 -5.047330e-02 -1.524811e-03 -1.076489e-01 -2.397916e-01 -4.120221e-03
<VARIANCE> 39
 1.586810e+01 4.395955e+01 1.325046e+01 1.040147e+01 1.193167e+01 1.481901e+01 1.787071e+01 8.517035e+00 2.137505e+01 2.194650e+01 2.067207e+01 1.607507e+01 3.083725e-03 3.905341e-01 5.242843e-01 8.422317e-01 7.114235e-01 1.218390e+00 8.572162e-01 1.653793e+00 1.246382e+00 1.400331e+00 1.303855e+00 1.823987e+00 1.392778e+00 4.235120e-05 8.181427e-02 9.898309e-02 1.571999e-01 9.875436e-02 1.290141e-01 1.144417e-01 3.293920e-01 2.035621e-01 2.481421e-01 2.100511e-01 2.603934e-01 2.336177e-01 1.450621e-05
<GCONST> 5.686587e+01
<MIXTURE> 8 7.952236e-02
<MEAN> 39
 -3.158371e+00 1.167329e+01 -4.154725e+00 -2.596846e+00 -3.441105e+00 -6.902045e+00 3.154417e+00 -4.871855e-01 3.784259e+00 2.251509e+00 1.621064e+00 4.549881e+00 9.073071e-01 -3.675206e-01 -9.910560e-01 6.090832e-01 -1.983417e+00 1.365617e+00 -1.184186e+00 4.261752e-01 -2.972683e-02 -3.265738e-01 1.925053e-01 2.375439e-01 -9.508538e-01 -6.414899e-03 2.200499e-01 -4.928153e-01 3.897495e-01 -2.357974e-01 -1.215312e-02 2.324231e-01 -6.154150e-01 7.773601e-02 -3.590332e-01 -1.139149e-01 -1.326903e-01 -2.312292e-01 -5.972399e-03
<VARIANCE> 39
 1.701184e+01 2.713751e+01 1.858257e+01 1.749444e+01 1.613161e+01 2.320711e+01 2.043093e+01 4.601092e+01 7.533912e+01 7.719830e+01 5.572916e+01 7.948669e+01 4.946621e-03 5.257680e-01 1.082984e+00 6.250765e-01 1.784354e+00 1.572152e+00 1.819092e+00 1.795982e+00 1.401050e+00 1.240062e+00 1.541723e+00 1.085702e+00 1.228162e+00 3.754082e-05 9.355885e-02 1.507744e-01 3.233473e-01 2.200045e-01 2.872195e-01 1.910733e-01 3.061088e-01 3.855783e-01 3.347655e-01 3.407402e-01 1.766146e-01 4.654179e-01 2.327371e-05
<GCONST> 7.310657e+01
<MIXTURE> 9 5.310990e-02
<MEAN> 39
 -1.791366e+00 1.304614e+01 -9.777590e+00 -3.402176e+00 -8.656656e+00 -1.298805e+01 -3.893590e+00 -7.589362e+00 -3.547332e+00 -6.374449e+00 -5.029231e+00 8.542794e-02 8.986619e-01 -2.263563e-01 -5.275483e-01 1.276807e+00 -1.705221e+00 1.662696e+00 -1.271462e+00 1.587671e+00 1.827714e-01 6.341549e-01 1.209723e-02 3.815137e-01 -5.135335e-01 -4.039818e-03 4.223579e-01 -2.305365e-01 1.074463e+00 5.363275e-02 6.848394e-01 6.867940e-01 2.482681e-01 9.266247e-01 1.595042e-01 8.294798e-01 1.641724e-01 2.858477e-01 -5.711676e-03
<VARIANCE> 39
 1.223149e+01 2.179212e+01 1.347482e+01 2.025023e+01 2.176511e+01 1.866788e+01 1.755573e+01 1.768163e+01 2.112528e+01 1.358839e+01 2.644715e+01 3.375342e+01 4.235932e-03 5.197672e-01 7.173457e-01 1.220147e+00 1.817942e+00 1.472176e+00 1.675445e+00 2.270249e+00 1.201433e+00 1.225038e+00 1.306264e+00 7.570316e-01 1.313967e+00 5.260890e-05 6.937248e-02 1.554537e-01 1.394079e-01 3.789596e-01 2.815037e-01 3.349641e-01 2.082742e-01 1.975037e-01 4.139032e-01 3.034438e-01 2.891749e-01 1.555209e-01 3.059364e-05
<GCONST> 6.534138e+01
<MIXTURE> 10 6.727985e-02
<MEAN> 39
 -1.049432e+00 1.252113e+01 5.293179e-01 -2.487881e+00 -3.440702e+00 -6.484910e+00 -1.125297e+01 -3.037381e+00 -5.835777e-01 -2.133558e+00 8.046299e+00 -2.205619e+00 9.066457e-01 9.882013e-02 -9.274467e-01 6.288622e-02 -1.042386e+00 4.971767e-01 3.447877e-01 1.086318e+00 1.826790e-01 3.701403e-01 -2.583798e-01 -3.394079e-01 2.732882e-01 -4.491146e-03 2.053949e-01 -3.765033e-01 6.263997e-02 -2.205113e-01 -1.998711e-02 4.112812e-01 6.349818e-01 3.851812e-01 1.877043e-02 -1.543181e-01 -9.029236e-01 -1.595492e-01 -6.237623e-03
<VARIANCE> 39
 7.351994e+00 2.601083e+01 1.203361e+01 1.453941e+01 1.556232e+01 2.269974e+01 2.614967e+01 3.185740e+01 3.087287e+01 3.980349e+01 1.122193e+01 9.431020e+00 2.874261e-03 3.221314e-01 6.180090e-01 8.135190e-01 1.889008e+00 1.205769e+00 9.675645e-01 1.923869e+00 1.611653e+00 1.381712e+00 1.234442e+00 1.428752e+00 1.683161e+00 1.870708e-04 3.271461e-02 1.588841e-01 1.416893e-01 1.677321e-01 2.976818e-01 1.394270e-01 2.593463e-01 2.764317e-01 3.416430e-01 4.848188e-01 1.446867e-01 3.180232e-01 3.536637e-05
<GCONST> 6.359721e+01
<MIXTURE> 11 9.761988e-02
<MEAN> 39
 -2.813642e+00 1.711639e+01 2.219869e-01 -6.036377e+00 -3.202944e+00 -6.762153e+00 -8.949738e+00 -9.383341e-01 1.954478e+00 -5.441800e+00 4.500912e+00 -3.361153e+00 8.784268e-01 -9.588663e-02 -1.103407e+00 1.059451e+00 -1.905910e+00 7.904727e-01 -5.122072e-01 5.452700e-01 4.471168e-01 4.394151e-01 1.054144e+00 -9.480506e-01 9.538207e-01 -4.099121e-03 2.543618e-01 -4.322743e-01 4.533754e-01 -2.564390e-02 -3.545082e-02 4.821179e-01 8.904712e-02 3.967788e-01 -1.211540e-01 2.307705e-01 -2.361620e-01 1.470650e-01 -6.567462e-03
<VARIANCE> 39
 8.358494e+00 1.937073e+01 1.574544e+01 1.425551e+01 1.636397e+01 1.618649e+01 1.285751e+01 1.710268e+01 2.485392e+01 1.634732e+01 1.656544e+01 1.542157e+01 4.949772e-03 3.268003e-01 3.992622e-01 3.908049e-01 6.247280e-01 6.602980e-01 9.888546e-01 9.381745e-01 1.006666e+00 9.348013e-01 9.192286e-01 9.600888e-01 4.959719e-01 7.915514e-05 6.947719e-02 1.050950e-01 8.713960e-02 2.530476e-01 1.170235e-01 1.273254e-01 1.192667e-01 1.147090e-01 2.109970e-01 1.111524e-01 1.357427e-01 1.509609e-01 3.115931e-05
<GCONST> 4.987534e+01
<MIXTURE> 12 7.269016e-02
<MEAN> 39
 -2.865454e+00 1.036033e+01 -7.564834e+00 -3.430101e+00 -9.304492e+00 -7.365753e+00 -2.160748e+00 -2.872127e+00 4.663530e+00 1.032147e+01 1.695707e+01 1.851750e+01 9.438748e-01 -2.841222e-02 -3.144501e-01 2.116088e-01 -5.935935e-01 4.121291e-01 -5.523923e-01 -1.234577e-01 -4.404565e-02 -2.667245e-01 2.999023e-01 -8.995374e-01 -2.885651e-01 -5.382165e-03 2.906951e-01 6.122209e-03 2.974150e-01 1.002148e-01 3.978907e-01 1.575942e-01 1.443844e-01 3.146282e-02 -2.009533e-01 -4.716371e-01 -8.366826e-01 -6.978343e-01 -8.835896e-03
<VARIANCE> 39
 1.403308e+01 1.574685e+01 1.680377e+01 1.719781e+01 6.251920e+01 2.532133e+01 2.288234e+01 7.241062e+00 2.274630e+01 2.374698e+01 4.601912e+01 1.437650e+01 2.731679e-03 7.770171e-01 7.561353e-01 1.301418e+00 1.479966e+00 3.351877e+00 1.380032e+00 1.877030e+00 1.683510e+00 1.010785e+00 1.822343e+00 2.891159e+00 2.252673e+00 1.354376e-04 1.417813e-01 1.508337e-01 3.720224e-01 2.269611e-01 4.054715e-01 2.730806e-01 4.565643e-01 1.940415e-01 2.387449e-01 3.022135e-01 3.235575e-01 5.030779e-01 3.140483e-05
<GCONST> 7.273189e+01
<STATE> 9
<NUMMIXES> 12
<MIXTURE> 1 4.899574e-03
<MEAN> 39
 -3.437719e+00 1.367368e+01 -5.079329e+00 -6.516377e-01 -4.638325e+00 -1.212722e-01 3.562236e+00 3.209272e-01 6.096380e+00 1.581452e+00 -1.991759e+00 2.477254e+00 7.040697e-01 -1.356602e-01 -2.725056e-01 -7.453820e-01 -9.985303e-01 8.597632e-01 7.815347e-01 3.571235e+00 4.177121e+00 3.835291e+00 2.648008e+00 1.123266e+00 -9.346142e-01 1.475609e-02 1.783306e-01 -9.684803e-01 2.674517e-01 -1.186672e-01 8.516436e-01 5.074843e-01 2.081891e-01 5.909665e-01 -3.241293e-01 -1.644714e-01 2.005644e-01 6.642927e-02 1.660969e-03
<VARIANCE> 39
 7.866460e+00 2.529635e+02 2.368619e+01 1.170308e+02 2.468746e+01 7.271861e+01 3.849444e+00 1.741886e+01 8.894939e-01 5.663315e+00 2.751147e+00 1.364945e+01 3.311060e-02 5.418355e-01 6.720117e-01 4.160650e-01 2.168256e+00 7.812678e-01 1.008668e+00 5.453084e+00 4.645690e+00 2.478176e+00 2.199181e+00 1.090217e+00 2.245314e+00 1.280129e-03 2.394231e-01 8.620997e-01 1.201974e-01 1.438808e-02 7.273967e-01 4.252224e-01 2.614997e-01 3.873854e-01 1.184756e-02 3.679394e-02 1.567633e-01 1.957851e-01 4.623953e-05
<GCONST> 6.593974e+01
<MIXTURE> 2 3.800727e-02
<MEAN> 39
 -2.523856e+00 1.063390e+01 -6.089283e+00 -9.999546e+00 -4.754644e+00 -1.685957e+01 -1.981916e+00 -5.583563e+00 -5.135026e+00 -3.610588e+00 -9.212559e+00 -5.877906e+00 8.729084e-01 3.891120e-01 -1.357583e+00 2.248336e+00 -1.621688e+00 1.944855e+00 7.618394e-01 4.989977e-01 2.472432e+00 1.880023e-01 1.050298e+00 1.096567e+00 4.342617e-02 -9.197358e-03 4.569048e-01 -6.219803e-02 7.072887e-01 8.164742e-01 5.451569e-02 1.440955e+00 -1.335548e-01 5.365121e-01 4.211420e-01 4.010933e-01 7.160794e-01 5.639457e-01 -8.773005e-03
<VARIANCE> 39
 1.527727e+01 2.383487e+01 1.305071e+01 1.026803e+01 1.109016e+01 5.300835e+00 5.857282e+00 1.000344e+01 3.018572e+01 1.802934e+01 1.438846e+01 3.671971e+01 3.654101e-03 2.565305e-01 3.459897e-01 9.503161e-01 1.275610e+00 1.504474e+00 1.696639e+00 1.911196e+00 1.990520e+00 3.048729e+00 2.229630e+00 1.574956e+00 1.297941e+00 1.372791e-04 1.150337e-01 1.686895e-01 2.175400e-01 2.016425e-01 4.579742e-01 2.499523e-01 2.655396e-01 3.814224e-01 4.738832e-01 2.856611e-01 2.545268e-01 4.303683e-01 7.668567e-05
<GCONST> 6.614310e+01
<MIXTURE> 3 6.813603e-02
<MEAN> 39
 -1.587512e+00 1.173239e+01 -5.065863e+00 -6.100085e+00 -4.339089e+00 -1.100508e+01 -1.496452e+00 -3.217017e+00 -4.255212e+00 -2.293477e+00 -3.227696e+00 -5.846999e-01 9.058507e-01 7.952667e-01 -5.487917e-01 2.169802e+00 -3.646129e-01 2.051174e+00 5.469297e-01 4.424836e-01 8.882952e-01 2.819515e-01 4.027445e-01 9.691637e-01 -8.880186e-01 -2.781925e-02 3.722998e-01 -1.500988e-01 5.899621e-01 7.821221e-01 3.042734e-01 8.721450e-01 -3.283301e-01 1.856740e-01 -1.545768e-01 2.823428e-01 3.093539e-02 2.281258e-01 -1.619254e-02
<VARIANCE> 39
